1572 200
موبایل -0.011657361 0.06276989 -0.19480483 -0.18205342 0.06778601 0.26270682 -0.16959289 -0.0894639 0.03000574 0.3857325 0.19037102 -0.18207112 0.24440084 0.098665915 -0.0663129 0.058514237 0.049113043 0.025267987 0.04734754 0.03460964 0.09959199 -0.07279133 0.030286321 0.027423823 -0.16747956 -0.010036255 -0.04720695 0.0040644775 -0.07064371 0.16708055 0.12225035 -0.01256006 0.09278211 0.031548966 -0.1304704 -0.09125092 0.0841489 0.2584529 0.25323567 -0.12349717 -0.30660725 -0.083911024 -0.37246904 0.14397919 -0.098891236 0.034350876 0.23060842 -0.12961462 0.05504284 0.23964624 0.28538716 0.15198152 -0.13250375 -0.18517537 0.12796532 -0.04869259 0.110282324 -0.033234276 -0.19582473 0.06970501 0.22321846 0.14893118 -0.1183115 0.0826985 0.16347584 0.1954403 0.09803214 0.23544401 -0.076579414 -0.1670409 0.114552535 0.14896753 -0.22646087 -0.14648902 0.13938062 -0.007955131 -0.096102834 -0.49224654 0.18642454 0.15569416 0.010368522 0.11424818 -0.2091882 0.14208525 0.0077853054 -0.2098982 -0.0788151 0.21282734 -0.012864431 -0.26067433 0.050834563 -0.15796004 -0.4362258 0.15793402 -0.124504425 0.0066046924 -0.05153672 -0.050101254 -0.2453939 0.2701139 0.23241669 0.4235127 0.18840128 0.045122582 0.19335628 -0.11767501 0.027584655 0.06515042 0.15046297 -0.00090246554 -0.28974286 -0.22927457 -0.13018207 -0.13688685 -0.17295046 -0.13502821 0.05322745 0.0948355 0.15528175 0.087353 -0.14459132 0.031611115 -0.06977065 0.059328314 -0.095407784 0.025498023 0.04465029 0.041183304 -0.21774039 0.009886634 -0.14957659 -0.019968348 -0.0827694 0.028371261 0.14056285 -0.10384296 0.0261787 0.08598456 0.024494836 -0.3053248 -0.122723445 0.049169872 0.2751154 -0.24947543 -0.04740069 0.06267903 0.078648366 -0.087389775 0.0029945914 -0.2409995 0.09957416 -0.09128665 0.037167165 -0.06981096 0.006592141 0.2363094 -0.071670264 -0.08308069 0.12306283 0.3504617 0.39684966 0.17772564 -0.11001707 -0.16140127 0.3131072 -0.10487793 -0.16983241 -0.074167006 -0.22911197 -0.095239885 -0.22013436 -0.209242 -0.0034949936 -0.13566701 -0.11054752 0.048465557 0.03500787 -0.10425667 0.16883609 0.05973335 0.06249715 -0.111788385 -0.082879804 0.048332423 -0.18792087 0.070636466 -0.060855698 -0.125625 -0.08861791 -0.03694371 -0.012343316 0.07336354 -0.012362883 -0.048203442 -0.17725341 0.030157685 -0.12891299 -0.091149986 -0.18044978 0.04757119
گوشی -0.00054452993 0.05935946 -0.17837979 -0.1437101 0.089439586 0.25744298 -0.16425514 -0.06940608 0.0442076 0.39779747 0.17319357 -0.15943505 0.25085002 0.12744142 -0.05389176 0.06157746 0.019846013 0.023279509 0.031780772 0.02833241 0.09072196 -0.09116061 0.04441177 0.039529826 -0.16562709 -0.012218743 -0.04241051 0.012709404 -0.08848584 0.1501665 0.103531405 -0.028644068 0.106766276 0.01453166 -0.12218937 -0.06844726 0.068554215 0.23908171 0.23699495 -0.1163386 -0.2813096 -0.06635907 -0.36578453 0.16843508 -0.081927545 0.031279795 0.2292824 -0.16870888 0.037267957 0.2346118 0.259679 0.16531815 -0.15992472 -0.17464869 0.1297035 -0.034136053 0.12859565 -0.03686583 -0.2037985 0.06549256 0.22355282 0.15889156 -0.121714264 0.08288799 0.16791105 0.20028612 0.115981035 0.23180203 -0.09963628 -0.17178074 0.11558762 0.16782767 -0.23155199 -0.1629057 0.14565597 -0.010286525 -0.1121982 -0.4908616 0.19658901 0.15596358 0.017970204 0.094785266 -0.23635979 0.13375773 0.014378553 -0.18969946 -0.08046402 0.22686066 -0.024020381 -0.25286663 0.043729734 -0.1809857 -0.4241894 0.1441384 -0.104817875 0.022547524 -0.08368722 -0.050473154 -0.25908485 0.2798769 0.24639568 0.43559128 0.21806161 0.062696315 0.16568767 -0.11408147 0.044961985 0.07523101 0.18448164 -0.018369628 -0.29246387 -0.24542958 -0.09207574 -0.15068915 -0.1615696 -0.15424967 0.057257544 0.10180129 0.17124218 0.09861807 -0.12382719 0.030330341 -0.055546787 0.07980666 -0.09838921 0.020045035 0.07746803 0.033335906 -0.22053553 0.013202796 -0.12869973 -0.020091696 -0.06425162 0.020289956 0.17039815 -0.120009616 0.021421498 0.105372995 0.029015234 -0.31149215 -0.11825702 0.035805013 0.2894454 -0.24072136 -0.04845826 0.06856272 0.10113718 -0.12305664 0.012834704 -0.251327 0.08063293 -0.09135402 0.03535692 -0.058987107 0.018342637 0.22931397 -0.09264929 -0.09489704 0.13755505 0.35860378 0.38202858 0.16516316 -0.09888565 -0.1556278 0.2925625 -0.08676075 -0.18009682 -0.060387537 -0.23144703 -0.08758182 -0.23898718 -0.20180923 -0.015833741 -0.13911085 -0.106049694 0.02793752 0.04890527 -0.10380598 0.15925163 0.05097387 0.08156385 -0.15074778 -0.08890011 0.055250447 -0.1678754 0.05636935 -0.073121786 -0.12785359 -0.11012129 -0.02930418 -0.00034560027 0.061851017 0.0124623785 -0.064185254 -0.17279252 0.009722345 -0.11011492 -0.08689336 -0.18410395 0.02764013
phone 0.16649556 -0.00067415414 -0.11370463 -0.020090481 0.06768505 -0.058055546 0.11777772 0.049528763 0.019001363 0.11850709 -0.08147064 -0.18084933 0.062252156 -0.13838582 -0.015555967 -0.058760475 0.10787112 -0.07890383 0.109915435 0.085059166 -0.043420583 -0.08812172 0.1308511 -0.2920019 0.30054918 -0.15312509 0.047274157 -0.08055071 0.22489436 -0.18672596 0.35731694 -0.02466373 -0.088178 -0.01478902 -0.1919509 0.0234381 0.08410991 0.052982952 0.0692787 0.038711816 -0.08675125 -0.066455044 -0.045010746 0.175701 -0.008604106 -0.05213725 -0.13765119 0.03904762 0.30312437 0.008238803 -0.12151178 -0.009968994 -0.24694468 -0.025763564 0.25373784 -0.18312404 -0.0018136209 0.0035746978 -0.28224137 -0.036407985 0.16320343 -0.05063321 0.13939919 0.1510803 0.3943616 0.015365358 0.26479775 -0.20493627 -0.13476811 0.15519331 0.22764532 0.041394975 -0.012437017 -0.084063165 0.18469802 0.227648 0.18558733 -0.115169145 -0.02008359 0.27914917 -0.20331834 -0.1527315 -0.10825493 0.052789435 -0.20653348 -0.046860244 0.0014481035 0.29116747 -0.37876475 0.029773269 0.23561548 -0.08946627 0.0663189 0.09778223 -0.0708877 -0.018322699 -0.14991747 0.04043081 0.033057354 0.04623082 0.022694787 0.14312714 -0.2695237 0.21931271 -0.101615004 -0.15366794 -0.09605374 -0.15001912 0.022097662 0.07572113 -0.10611931 -0.18313617 -0.06698902 0.03179665 -0.05471244 -0.2529834 0.18174863 0.06640348 0.004028962 0.28878993 -0.17818417 0.22689606 -0.15894906 0.107375704 -0.27611548 0.35375258 0.106997006 0.2981659 -0.13983297 0.28091896 0.11105787 -0.048327487 0.046140715 -0.026424833 0.1919721 0.2055615 -0.08192967 0.067041345 -0.14271724 0.09736965 -0.0019170891 0.069239564 0.2737452 -0.024521276 -0.12906983 0.056184385 0.020224432 -0.098315954 0.2452842 -0.11909791 -0.032840364 0.09794205 0.19513267 0.13746405 0.04223396 -0.10003303 0.3439124 -0.2784428 0.028695216 0.26296195 -0.0069340947 0.29707575 -0.108107395 0.09493756 0.037063047 0.18799265 -0.2569575 -0.15689531 -0.10060086 -0.03628011 -0.3406319 -0.16689637 0.22613207 0.15542944 0.055086166 -0.033543073 -0.08358467 0.22659698 0.14611734 0.115630016 0.043808773 -0.15546916 0.016445003 -0.092782 -0.28017703 0.25642642 -0.1174487 0.119078994 0.0928638 0.4775738 -0.2402443 -0.27285093 -0.3081895 0.1176617 -0.12860388 -0.189902 -0.33886215 0.058059525 -0.13986698 -0.25079626
mobile 0.17248142 0.020864526 -0.09754113 -0.030986208 0.101203516 -0.059760995 0.11929739 0.04943923 0.03297011 0.11496927 -0.055387415 -0.18352011 0.06622525 -0.12909716 -0.02963168 -0.06708971 0.07755476 -0.099373244 0.09245092 0.09275439 -0.033800483 -0.07753373 0.10831306 -0.28634268 0.2876847 -0.16790032 0.06742032 -0.059931334 0.21209998 -0.18699506 0.36141717 -0.028937822 -0.09505069 0.0057995934 -0.17983893 0.022006944 0.084672995 0.06159641 0.06722434 0.060388945 -0.08469223 -0.054511186 -0.07028869 0.16895585 -0.008199955 -0.059735846 -0.12285668 0.0038168444 0.3083243 0.030770702 -0.10894358 -0.009939657 -0.26358035 -0.011659218 0.24467844 -0.19496395 0.015194851 -0.011251018 -0.28100777 -0.025310084 0.1587997 -0.012099822 0.113061935 0.15577717 0.3852251 0.032789584 0.2866394 -0.20720777 -0.1335963 0.13828234 0.23080853 0.075132295 -0.019246086 -0.0894536 0.17840339 0.2272195 0.1804252 -0.12359236 -0.014183377 0.26409623 -0.19134207 -0.14971615 -0.106793426 0.08181501 -0.18907943 -0.039938435 0.0062546623 0.2838512 -0.3717188 0.022759693 0.2513896 -0.1040611 0.061625615 0.09725399 -0.055671964 -0.019276679 -0.15096156 0.04974275 0.027005577 0.04705416 0.017102301 0.17859724 -0.23383391 0.20891169 -0.10810908 -0.14739758 -0.088810034 -0.13657458 0.033024237 0.06448378 -0.10251812 -0.19020265 -0.05786401 0.024721285 -0.06436689 -0.25474933 0.17197764 0.08650287 0.012802344 0.29074734 -0.19084758 0.22550474 -0.14324364 0.11944795 -0.26975858 0.33746892 0.120258905 0.2766726 -0.12074916 0.27275455 0.081591025 -0.01570613 0.04273911 -0.0030945374 0.1803973 0.21178137 -0.069807455 0.058698867 -0.13730401 0.06629097 -0.010541527 0.071265824 0.3083912 -0.010661472 -0.15559615 0.052761786 0.0001431584 -0.12152764 0.26261622 -0.152662 -0.04143396 0.084142014 0.18719237 0.14338483 0.055957146 -0.07142888 0.33251524 -0.2742478 0.042284004 0.279659 -0.02310964 0.3042783 -0.092618704 0.08435641 0.019721026 0.18945491 -0.2589548 -0.15163043 -0.10153195 -0.046235733 -0.3344296 -0.15722159 0.23117676 0.120310806 0.049122065 -0.034995068 -0.10047219 0.19788687 0.12775935 0.121396184 0.06263665 -0.134345 0.0010270271 -0.1032262 -0.2598789 0.25646517 -0.09364749 0.11437628 0.08529711 0.44316137 -0.22025533 -0.28086552 -0.28590506 0.09013469 -0.12953489 -0.18049556 -0.33021685 0.06310638 -0.15860826 -0.2243918
مدل 0.0220103 0.0695623 -0.20255478 -0.18466552 0.052436545 0.2214922 -0.13420856 -0.09856667 -0.007775434 0.2993868 0.15053007 -0.20039934 0.24168822 0.010600596 -0.042994503 0.0016195765 0.031655356 0.020602068 0.065308884 0.021321632 0.06265035 -0.03265982 0.019007212 -0.021798981 -0.089623615 -0.0026462642 -0.04289886 0.024058966 -0.064629965 0.13364777 0.14249557 -0.0021570874 0.06511227 0.022609092 -0.11369128 -0.061099634 0.09915158 0.20466639 0.19448654 -0.14035238 -0.2817443 -0.10073832 -0.29421937 0.13538219 -0.11461281 0.011422289 0.19485722 -0.056822095 0.17571235 0.12621523 0.24095964 0.08911073 -0.14408101 -0.17220905 0.10467677 -0.05372675 0.013490528 0.04058119 -0.1406033 0.061334234 0.19412363 0.0630008 -0.11063679 0.083036385 0.2303063 0.122548655 0.11987952 0.2031995 -0.07093874 -0.09136753 0.12373033 0.08748897 -0.18562004 -0.12944447 0.10700313 0.011143967 -0.057591163 -0.39537546 0.11226321 0.11932858 -0.050384987 0.13925552 -0.14080085 0.15858668 0.028154086 -0.17168376 -0.09916013 0.22707209 -0.036184646 -0.18523976 0.065389015 -0.16707982 -0.3954368 0.1655628 -0.16343158 -0.006377255 -0.008596182 0.013524397 -0.14490095 0.22185117 0.2221571 0.2943925 0.07663141 0.07664846 0.22410427 -0.12304908 -0.020650145 0.037803303 0.10695014 0.020550476 -0.24760027 -0.17681517 -0.16605704 -0.114851356 -0.15722805 -0.17200507 0.026723905 0.107874155 0.090959355 0.09471155 -0.17822964 0.033295024 -0.055218518 0.040733587 -0.09752002 0.07040313 0.015828656 0.0732278 -0.22603326 0.03935249 -0.1014246 -0.078116834 -0.061804708 0.01956258 0.12812279 -0.041144297 -0.002151153 0.075861566 -0.003693033 -0.23295195 -0.09318676 0.029276157 0.188469 -0.23078051 -0.041153926 0.085937105 0.094511546 -0.0612339 -0.01079259 -0.16568519 0.07899696 -0.07335284 0.06445336 -0.031423066 -0.06590914 0.1595205 0.0050556734 -0.114966296 0.05874755 0.31926575 0.3251582 0.17128406 -0.095595144 -0.10006346 0.29624534 -0.08580616 -0.12606524 -0.07534761 -0.20885733 -0.07846289 -0.16850944 -0.22422317 0.028718585 -0.095552884 -0.090085596 0.021962274 0.039243627 -0.007835519 0.19446115 0.061383184 0.049288806 -0.05037494 -0.07912903 0.03476454 -0.18883617 0.09744262 -0.06935948 -0.06380966 -0.018615741 0.041291527 -0.01310347 0.013884248 -0.04351624 -0.03706768 -0.18460608 -0.020235782 -0.14642964 -0.062409386 -0.1392484 -0.01774593
کارت 0.07960693 0.0788191 -0.25683323 -0.24813844 -0.004392767 0.13917914 -0.07339084 -0.17305867 -0.029356467 0.30865085 0.096881434 -0.20796238 0.27443346 -0.22800179 0.11124308 -0.13598295 0.059178766 0.031923514 0.17710844 -0.049461238 -0.058957428 0.04567934 0.14580092 -0.20060949 0.057744272 0.05298377 0.005924739 0.14975867 -0.12236459 0.038785223 0.16340762 -0.03214414 0.044767305 -0.06483869 -0.055228647 -0.013086254 0.17420642 0.05073574 0.051550392 -0.29637375 -0.22476879 -0.12768997 -0.22107892 0.20377465 -0.15001188 -0.038092803 0.1096274 0.07232254 0.40720233 -0.082123294 0.23444334 -0.053302873 -0.13843536 -0.21113925 0.17927344 -0.08672877 -0.21588355 0.14792469 -0.06868991 0.15089214 0.16681409 -0.17777848 0.014202131 0.15320903 0.35477915 0.009032302 0.18615332 0.15930203 -0.10710972 -0.050522037 0.14928405 -0.023128048 -0.10527775 -0.2075584 0.031815443 0.015779559 0.01805198 -0.14604138 -0.050714217 0.09600566 -0.23660925 0.26048994 -0.02398598 0.250687 0.14182575 -0.19378474 -0.28855127 0.3130877 -0.12179014 0.024746357 0.11542512 -0.16891856 -0.3825665 0.19451226 -0.27812287 0.007411523 -0.032417543 0.1619541 0.05700703 0.053799678 0.27114803 -0.025837868 -0.21144213 0.073382884 0.35926327 -0.08877735 -0.07318434 -0.03128363 0.052866627 0.13460423 -0.119918205 0.004617835 -0.25921208 -0.13730796 -0.19178338 -0.24731676 -0.15210961 0.0709593 -0.047118016 0.090934664 -0.2745348 0.09192018 -0.17193303 0.0698641 0.010218619 0.11821443 -0.22669338 0.14281176 -0.33280957 0.037233453 -0.06366956 -0.25000829 -0.07043395 0.0014135372 0.18512356 0.23125033 -0.037286866 -0.013772252 -0.084840015 -0.11571488 -0.15482363 -0.002998189 0.004708617 -0.27373338 -0.024302913 0.17462039 0.13324374 -0.043535925 0.097712606 -0.008314226 0.024404582 -0.04490887 0.14817597 0.0028014812 -0.3024244 0.049386386 0.19502127 -0.23574944 -0.108139805 0.2761796 0.20473355 0.16721119 -0.057261568 -0.026496887 0.29715118 -0.050386902 -0.03849971 -0.095105745 -0.13945262 -0.04435539 -0.0305134 -0.27501437 0.14933114 0.0034033228 -0.09216979 -0.015396294 0.050490588 0.21011601 0.29679933 0.14026065 0.07197526 0.07332991 -0.08026156 0.022557255 -0.19690716 0.12786144 -0.03075158 0.09079408 0.18094024 0.2676659 -0.13759571 -0.10505987 -0.08344774 -0.03404936 -0.20064947 -0.06702597 -0.20696369 -0.01818613 -0.014358965 -0.14751148
سیم 0.061795104 0.07061771 -0.25424966 -0.25854373 0.005044298 0.15061331 -0.07715998 -0.15252268 -0.014824108 0.31300837 0.10424292 -0.1971215 0.2547131 -0.21424326 0.11227774 -0.123750985 0.06834742 0.026556592 0.16756701 -0.060676515 -0.04757823 0.052799016 0.1384624 -0.19594504 0.042715523 0.049165525 0.004513777 0.1327904 -0.10366711 0.06342127 0.15959248 -0.027151456 0.05104876 -0.07464743 -0.039868314 -0.01764237 0.15477316 0.07144349 0.05828889 -0.3008529 -0.21205375 -0.12003378 -0.22165051 0.21460137 -0.14727792 -0.024183413 0.09807006 0.06300222 0.39406347 -0.069876365 0.25142676 -0.038747188 -0.13906717 -0.20592992 0.16960154 -0.096441604 -0.20046066 0.13502008 -0.085135214 0.14751205 0.17150779 -0.1613362 0.009866602 0.16491272 0.35282966 0.02459416 0.18678157 0.15622577 -0.11964467 -0.044917066 0.13918139 -0.00924985 -0.09769662 -0.20529519 0.0297036 -0.0011674587 0.004806792 -0.17759791 -0.046466317 0.09893441 -0.22517475 0.26010516 -0.033247534 0.26487532 0.14734748 -0.18554129 -0.282419 0.32247406 -0.12425423 0.0002817656 0.12711516 -0.1687349 -0.37270617 0.18407479 -0.27648148 -0.015859531 -0.020751439 0.16319066 0.060750507 0.0490327 0.27932373 -0.017818484 -0.1891051 0.08311377 0.35751066 -0.10384999 -0.073924996 -0.017168803 0.047003634 0.12971716 -0.1269662 -0.008313095 -0.2555185 -0.12335596 -0.18229842 -0.24173257 -0.13790937 0.06902339 -0.051304933 0.09363207 -0.28004825 0.0792674 -0.15764575 0.05483775 0.01909018 0.11005301 -0.22734152 0.14910786 -0.32727602 0.03928611 -0.070968874 -0.25636792 -0.07811932 -0.00768443 0.18195279 0.220688 -0.020213181 0.0013394433 -0.07335007 -0.12854578 -0.14430933 -0.0025674272 0.011707639 -0.2593666 -0.034551233 0.16824853 0.13628094 -0.044703584 0.102047 -0.027574053 0.034234595 -0.04236921 0.15525182 0.0032338765 -0.29479116 0.06908283 0.17239173 -0.22386007 -0.124586605 0.2623258 0.20652597 0.15154582 -0.061441686 -0.04997026 0.28973624 -0.06370539 -0.025967358 -0.103351906 -0.14212865 -0.027404392 -0.04446302 -0.28193524 0.1459183 -0.004463317 -0.09152019 -0.02476287 0.055936307 0.20466188 0.29817423 0.1514364 0.060637113 0.07173081 -0.08155469 0.03598723 -0.19582464 0.10827463 -0.023787089 0.09388612 0.17921096 0.2437455 -0.1254171 -0.08959428 -0.08197309 -0.032425486 -0.18567389 -0.07427341 -0.1975967 -0.025997795 -0.02743528 -0.13947879
دو 0.07569858 0.07464941 -0.26130095 -0.26012203 -0.017978173 0.1418425 -0.08877756 -0.17127587 -0.041981716 0.30524117 0.0936451 -0.21561286 0.2732956 -0.23312944 0.09340362 -0.1452639 0.07609422 0.039967585 0.17969254 -0.049615532 -0.047973406 0.051225934 0.13383935 -0.20654 0.07092786 0.034678366 0.0009557505 0.1350918 -0.11805346 0.06001332 0.17809908 -0.010634036 0.025225967 -0.07106193 -0.06057409 -0.008023686 0.16027223 0.07468883 0.041786067 -0.2876518 -0.22599599 -0.13257982 -0.20700748 0.19864869 -0.1618886 -0.027603814 0.09310364 0.0672728 0.40690008 -0.08932774 0.24411976 -0.054275624 -0.13453892 -0.19627525 0.18315826 -0.09915995 -0.2046403 0.15202267 -0.05066678 0.1563757 0.1834825 -0.17763096 -0.0038376166 0.14930387 0.34035128 -0.0055727884 0.1786254 0.1513775 -0.09782488 -0.04163995 0.14100379 -0.01392508 -0.10786368 -0.18784152 0.046316817 0.008785481 0.023795381 -0.15566927 -0.05874072 0.081037894 -0.21853924 0.25769505 0.0025908696 0.26351157 0.14209014 -0.19085841 -0.28312546 0.30337715 -0.1146585 0.015300658 0.121981 -0.17470719 -0.3892986 0.18928221 -0.2732532 0.010250593 -0.017954154 0.17270224 0.046829168 0.056867342 0.27825478 -0.012699646 -0.21096227 0.0926335 0.3802813 -0.097197354 -0.06560906 -0.031413056 0.029993834 0.12661812 -0.124700956 -0.014240742 -0.2370207 -0.13164161 -0.17187123 -0.23410396 -0.14385696 0.081681244 -0.035710722 0.09540748 -0.27064392 0.08297063 -0.17429385 0.067350484 0.006383642 0.11816453 -0.22793263 0.14742559 -0.32739657 0.027748507 -0.06281432 -0.24617587 -0.06625963 -0.0013833317 0.18080793 0.22580592 -0.02706033 2.8719973e-05 -0.073227204 -0.11825583 -0.15190428 -0.0066296207 0.019763187 -0.27402115 -0.030545251 0.18223299 0.12099709 -0.033944093 0.10431845 -0.008302164 0.041139465 -0.03407687 0.13778472 0.0010409878 -0.3057123 0.061046258 0.20536608 -0.2279883 -0.11826362 0.25311399 0.21715903 0.1655424 -0.06916734 -0.03953043 0.2841485 -0.037261028 -0.05924609 -0.11057079 -0.15127574 -0.03344868 -0.030542957 -0.27450716 0.14000912 -0.013042603 -0.10176965 -0.024275983 0.05382752 0.22490658 0.29323408 0.14956783 0.06894119 0.06250513 -0.068137586 0.03646463 -0.17868266 0.12689449 -0.0122062 0.11180928 0.18416506 0.26786354 -0.1215712 -0.10208837 -0.07266221 -0.021162068 -0.21473444 -0.069042735 -0.21841763 -0.021223692 -0.029950079 -0.138213
sim 0.17409486 0.013821295 -0.12798506 -0.03279742 0.07015698 -0.06201454 0.12951359 0.04701337 0.009383789 0.11133915 -0.06505834 -0.2031952 0.07588003 -0.15731396 -0.014986563 -0.07221158 0.097364515 -0.09602824 0.10949956 0.084043026 -0.035954434 -0.08233837 0.10782547 -0.3049849 0.3048735 -0.15855238 0.05336527 -0.07353493 0.22212327 -0.18465057 0.3709649 -0.0121561885 -0.09276755 -0.006964779 -0.193945 0.022011299 0.10683114 0.05607455 0.06549596 0.034130137 -0.099039786 -0.07453189 -0.052998602 0.16635083 -0.02614537 -0.05712191 -0.13611884 0.04279368 0.3489926 -0.0115711875 -0.11227598 -0.03220289 -0.26229927 -0.028847579 0.25438464 -0.19103934 -0.026596474 0.017432567 -0.26885897 -0.035140283 0.16670723 -0.059519988 0.12899244 0.16179802 0.41283226 0.0013191291 0.2851375 -0.20298474 -0.13563491 0.16182442 0.23120691 0.033963483 -0.0132979285 -0.088240184 0.17287819 0.23256898 0.19648337 -0.12577061 -0.030778572 0.27306 -0.2252934 -0.13831857 -0.079556115 0.07748344 -0.19372334 -0.04260574 0.00011760822 0.29662487 -0.3892945 0.031032503 0.25112432 -0.106330745 0.05029884 0.115285866 -0.08724652 -0.021222955 -0.13767584 0.055591043 0.062395014 0.047238953 0.032240577 0.14516526 -0.28910777 0.22479975 -0.07817993 -0.1650686 -0.0991592 -0.1570327 0.014190138 0.08959347 -0.104622506 -0.1788714 -0.08797308 0.024384225 -0.06081494 -0.27966264 0.16667712 0.082180835 -0.008709707 0.29390967 -0.20830938 0.23013674 -0.15272856 0.10750314 -0.28549108 0.36192563 0.09232002 0.3074592 -0.15660842 0.29920295 0.105023906 -0.046390895 0.042077705 -0.008628803 0.18117729 0.22680128 -0.07199749 0.051533997 -0.14877085 0.08802921 -0.008446953 0.06646724 0.2850909 -0.035428796 -0.15045188 0.058593147 0.019774605 -0.107251585 0.24302027 -0.115831636 -0.03843458 0.09021098 0.2058852 0.15360561 0.022095691 -0.10494882 0.36782834 -0.28911123 0.027483927 0.28398943 -0.013444231 0.3082661 -0.08979643 0.08893722 0.056622695 0.19280085 -0.24616535 -0.1611512 -0.1183812 -0.03606467 -0.33907223 -0.17108537 0.23334673 0.15039694 0.0407993 -0.031238487 -0.084008515 0.24794331 0.14688171 0.1296686 0.056300245 -0.12818739 0.013617273 -0.10124813 -0.28758514 0.27642548 -0.11042432 0.12653174 0.110912286 0.49041292 -0.24766648 -0.29172665 -0.30895725 0.11974722 -0.14079612 -0.20350125 -0.3407915 0.07061358 -0.14716053 -0.2538171
dual 0.1667233 0.007186599 -0.13883787 -0.044058524 0.07216421 -0.043263074 0.107101835 0.03310774 0.012709319 0.10131952 -0.048180897 -0.21017127 0.0775818 -0.16091989 -0.009012674 -0.08249783 0.08787728 -0.09385141 0.10409631 0.08582944 -0.05013514 -0.065278016 0.10812252 -0.29803398 0.29779214 -0.1467645 0.055383824 -0.06030433 0.2153082 -0.16374978 0.3684078 -0.010143 -0.09315503 0.011427725 -0.18577227 0.016134184 0.09676745 0.0697908 0.063680165 0.037297565 -0.10344679 -0.08033709 -0.055451028 0.15461046 -0.017246306 -0.057656765 -0.115985334 0.054123335 0.35137063 -0.010115423 -0.10075931 -0.020275893 -0.24827099 -0.025041496 0.23449665 -0.1875076 -0.022274122 0.025052771 -0.2672376 -0.030475138 0.16703863 -0.05568674 0.106555946 0.16893555 0.41212815 -0.0011606496 0.2772461 -0.17805654 -0.1348554 0.16320235 0.22314847 0.031501587 -0.018500626 -0.08065765 0.169778 0.21984133 0.18958515 -0.1245371 -0.032690626 0.24652204 -0.21925087 -0.12510495 -0.08234687 0.08959562 -0.17891978 -0.053571157 -0.015386183 0.29828385 -0.36906245 0.0279276 0.24304135 -0.0986453 0.024630124 0.10335213 -0.09116463 -0.021617595 -0.105598636 0.06052097 0.06507056 0.061566457 0.034513403 0.13396059 -0.28247252 0.2021955 -0.05925078 -0.1647072 -0.11092929 -0.14174165 0.0076033305 0.08516844 -0.107280426 -0.16311595 -0.10494769 0.03243843 -0.07039713 -0.26334113 0.16661651 0.09078196 -0.02015933 0.27789226 -0.20037585 0.20140082 -0.13910277 0.09073029 -0.28270537 0.34084556 0.08514179 0.2935529 -0.15008476 0.28119317 0.109119244 -0.054410484 0.043693583 -0.016115583 0.17421262 0.21261843 -0.06176125 0.04760064 -0.13855256 0.073689826 0.005878886 0.059800833 0.24588796 -0.031073581 -0.13694857 0.0557611 0.013881709 -0.092118874 0.22519977 -0.10489406 -0.03640545 0.095245525 0.20181601 0.13661946 0.021750927 -0.092935316 0.35568434 -0.28288293 0.013630348 0.26289013 0.0063017127 0.29309142 -0.101925515 0.092492856 0.06043716 0.16544718 -0.23811013 -0.16604875 -0.11636114 -0.04308323 -0.31863186 -0.18101434 0.21629968 0.14183779 0.048048504 -0.020127632 -0.092464425 0.23331171 0.15424056 0.118234664 0.0398295 -0.11352959 0.004689216 -0.09096641 -0.27557337 0.2539472 -0.095355995 0.12263276 0.106648944 0.4605406 -0.22206679 -0.27168274 -0.31059703 0.10747403 -0.13062105 -0.17820263 -0.33496162 0.05612001 -0.14276125 -0.2322042
gb 0.16687083 0.013062024 -0.1426778 -0.05542981 0.05178734 -0.060030267 0.1182151 0.017845552 0.0040424857 0.08790159 -0.05866706 -0.21656466 0.088268146 -0.19262095 0.0049597216 -0.09968059 0.096798584 -0.086315624 0.12718862 0.07088645 -0.059262644 -0.044927616 0.10779916 -0.31452164 0.30122328 -0.13069859 0.0609243 -0.04159546 0.1953174 -0.16949941 0.36727917 -0.009009076 -0.099804804 -0.009288283 -0.17312871 0.021583136 0.108625 0.047116227 0.048005357 0.008427564 -0.098018944 -0.09318951 -0.03869381 0.16374712 -0.036130488 -0.05918062 -0.122742735 0.07507388 0.39133054 -0.056306228 -0.08694734 -0.053076733 -0.24228261 -0.03578257 0.23420861 -0.17986694 -0.07294565 0.055204045 -0.23748717 -0.032939747 0.16012867 -0.09931124 0.1264434 0.17588575 0.42344305 -0.032113448 0.28794575 -0.18150565 -0.12654415 0.17584588 0.21354264 0.0070230374 -0.011278514 -0.08451284 0.15059757 0.21786715 0.19526257 -0.09250949 -0.06111607 0.24647246 -0.2462674 -0.08727131 -0.049942363 0.10772128 -0.1574746 -0.05892434 -0.03788789 0.29775435 -0.3745579 0.055344332 0.24641939 -0.11201252 0.027049663 0.122816205 -0.12526985 -0.02301095 -0.095800534 0.092770964 0.095713034 0.036173414 0.04568222 0.07974391 -0.32337528 0.2097863 -0.022071052 -0.17023987 -0.117778026 -0.14935091 -0.014988655 0.102622375 -0.096996956 -0.14000854 -0.12486383 0.030751785 -0.06534352 -0.27898565 0.13331977 0.09565305 -0.03853308 0.27771968 -0.22445846 0.20642954 -0.15368673 0.08980786 -0.26340485 0.3543708 0.045795687 0.3009107 -0.16469231 0.27922773 0.106721975 -0.07643983 0.046570476 -0.022218663 0.17003271 0.2524723 -0.071693525 0.03568553 -0.14904913 0.09825421 -0.0008994145 0.051871516 0.2149489 -0.043762624 -0.13398404 0.07946143 0.02902337 -0.08819241 0.22356863 -0.07979238 -0.03540037 0.08903787 0.21218166 0.14354074 -0.02566642 -0.11796613 0.38597485 -0.29504436 -0.015421791 0.262571 -0.005996038 0.2928934 -0.090497315 0.096515685 0.08334807 0.17164047 -0.21987732 -0.16359906 -0.12075175 -0.033417698 -0.29998505 -0.18944556 0.23661597 0.14356638 0.03358043 -0.02749407 -0.081922576 0.27617213 0.16942376 0.1277373 0.044247404 -0.07706133 0.009578329 -0.08751437 -0.28519157 0.26855907 -0.102108695 0.14737691 0.14582497 0.4878762 -0.23172112 -0.29506576 -0.31438068 0.117745906 -0.13879935 -0.19626705 -0.33361596 0.061985675 -0.12617587 -0.2626651
گیگابایت 0.10168883 0.08153295 -0.26848578 -0.26067457 -0.012549041 0.106468104 -0.05102958 -0.1690196 -0.03160797 0.27521825 0.06259202 -0.22041725 0.26971242 -0.29525375 0.12432946 -0.16245566 0.089138575 0.025115369 0.1956201 -0.04859136 -0.097713776 0.06356144 0.1657353 -0.27079898 0.120887086 0.03362367 0.02409159 0.15035403 -0.093829595 0.009698344 0.21260568 -0.027557958 0.014974805 -0.096625425 -0.0469472 0.0011376624 0.18210138 0.027835315 0.012302072 -0.30962482 -0.19693673 -0.13699016 -0.19219786 0.22387499 -0.16022007 -0.04129942 0.061505713 0.1082889 0.48886758 -0.14632733 0.22427462 -0.09289759 -0.15529105 -0.20427139 0.20013262 -0.10792996 -0.26029152 0.18015751 -0.07584808 0.1531846 0.17862122 -0.22547857 0.054724466 0.19005294 0.40927354 -0.035503037 0.22266752 0.110072315 -0.12155315 -0.014946553 0.16367303 -0.047762472 -0.07757667 -0.21412525 0.02931674 0.032859586 0.054448783 -0.108962096 -0.1014936 0.11834032 -0.2779288 0.25633514 0.00671586 0.2791742 0.1439897 -0.19748554 -0.3134625 0.34982803 -0.1830398 0.057042476 0.16598362 -0.17334896 -0.34344113 0.20208758 -0.31700107 -0.0068321694 -0.028132569 0.21367334 0.11348662 0.030524109 0.29071426 -0.09691833 -0.29255873 0.12047475 0.3743206 -0.11541774 -0.09375036 -0.046680048 0.018118316 0.1631772 -0.1126899 0.0043466175 -0.28093898 -0.12070875 -0.1840325 -0.27970624 -0.15963705 0.08219381 -0.07461958 0.11934404 -0.31117374 0.115574 -0.19748841 0.07751306 0.0039255316 0.1896856 -0.26605076 0.18863131 -0.33793694 0.06339954 -0.03806188 -0.27919877 -0.048505075 -0.019786747 0.20136715 0.31476748 -0.034947135 -0.0109893605 -0.10454626 -0.059446722 -0.13345708 -0.003932697 -0.003427278 -0.26341796 -0.049729887 0.21048589 0.13569231 -0.04049099 0.14946446 -0.00077368796 0.021370701 -0.026858715 0.18144572 0.032281417 -0.34349537 0.012352438 0.2816886 -0.2828497 -0.15792327 0.27767497 0.1636635 0.18098187 -0.05908217 0.0037858987 0.30131269 -0.015390934 -0.05054345 -0.13529627 -0.13826509 -0.012870162 -0.045822743 -0.29625148 0.19844592 0.028459316 -0.09258312 -0.039519798 0.03462595 0.29861578 0.32023937 0.17283566 0.064193934 0.09926976 -0.06788744 0.019687315 -0.22020125 0.15056837 -0.021459108 0.14918032 0.24321349 0.36389092 -0.17073669 -0.16961797 -0.13213344 -0.008968915 -0.21600305 -0.121708386 -0.2558957 -0.0098832995 -0.007995457 -0.20521984
ظرفیت 0.09957321 0.075528756 -0.2795694 -0.26322824 -0.03138489 0.10638464 -0.054223992 -0.16662689 -0.044420943 0.27200913 0.071045525 -0.23590781 0.27424678 -0.30348274 0.123415284 -0.16319542 0.07579315 0.022623725 0.1963643 -0.057041656 -0.080818154 0.057026863 0.14952633 -0.26393917 0.13004284 0.04321688 0.026229996 0.15060915 -0.086643904 0.015665684 0.21240357 -0.022583762 0.014430977 -0.08183381 -0.05121437 0.0031450153 0.18844017 0.032314867 0.017516 -0.29491395 -0.20022884 -0.14534 -0.18638518 0.19807039 -0.15948269 -0.052104853 0.06406584 0.12804884 0.4950287 -0.15202855 0.22101577 -0.09625109 -0.14575075 -0.20248495 0.20060268 -0.110837676 -0.2744609 0.1965413 -0.052232433 0.13854575 0.17126179 -0.23394419 0.04087438 0.17010841 0.40965003 -0.039359525 0.22014025 0.111453466 -0.10955163 0.012442886 0.16127244 -0.05626052 -0.07678534 -0.19159557 0.030556254 0.042425077 0.059113786 -0.10595002 -0.09371752 0.094709076 -0.29021505 0.26390433 0.018385395 0.26756713 0.13649897 -0.18047555 -0.30083522 0.34603983 -0.17603984 0.059800252 0.1518789 -0.18359867 -0.35014275 0.20411067 -0.30756456 -0.0016689233 -0.0056414027 0.21036421 0.12198265 0.020921856 0.27768564 -0.095866255 -0.30507797 0.11179364 0.3843897 -0.118912324 -0.10881307 -0.06159448 0.00899858 0.1688757 -0.10807725 0.015023932 -0.28472987 -0.1036503 -0.18219097 -0.28164187 -0.1588929 0.09277375 -0.094085634 0.10488193 -0.31564644 0.104040526 -0.19081168 0.06584412 0.0026280477 0.17867503 -0.26486197 0.19242327 -0.34159914 0.06762402 -0.02930039 -0.29231384 -0.042924438 -0.016532889 0.1894126 0.29702726 -0.041083384 -0.020190986 -0.0995271 -0.053202275 -0.14021382 -0.00543098 -0.021953307 -0.27138516 -0.04200744 0.20510587 0.13573417 -0.022353373 0.12429927 0.027642364 0.030041697 -0.019747147 0.18586047 0.026561642 -0.3451759 0.008551767 0.28920418 -0.27600414 -0.15459995 0.26308703 0.17544842 0.18491504 -0.06501729 -0.0075935153 0.3010936 -0.009930867 -0.049928993 -0.11688412 -0.13938956 -0.020551087 -0.044916958 -0.2925054 0.18654627 0.035447925 -0.080924176 -0.023375075 0.04983002 0.29153264 0.31565014 0.15792982 0.04950605 0.105916895 -0.07822316 0.022438053 -0.21326137 0.15969893 -0.035036262 0.14545114 0.24667335 0.35600474 -0.15519723 -0.15791665 -0.14022899 0.004947453 -0.21462984 -0.11376216 -0.23572144 -0.0118543 -0.011995089 -0.1985695
a 0.06776247 0.025849653 -0.2419305 -0.105344765 0.0035014665 0.084089 -0.0019980818 -0.029937502 -0.021751717 0.1703394 0.102344744 -0.25476557 0.16313192 -0.10884453 0.038342487 -0.07255357 0.04800089 -0.0676537 0.04551751 0.01842138 -0.04168302 -0.012706332 -0.009021939 -0.1557184 0.07710323 -0.045554627 0.010655918 0.010607104 0.059483606 0.07880515 0.23101768 0.041375376 0.02019675 0.054797087 -0.1373842 -0.06240208 0.15694101 0.1333771 0.10634065 -0.06515574 -0.15413608 -0.14108568 -0.126167 0.05060088 -0.07292675 -0.060389694 0.064063534 0.091009475 0.2917254 -0.023435462 0.10107925 -0.02755537 -0.14542891 -0.09369023 0.16009164 -0.090886466 -0.08677884 0.10584685 -0.17310545 -0.007095981 0.15342338 -0.079837054 -0.0263036 0.14673218 0.3229688 -0.036506694 0.15066826 0.06192205 -0.10324417 0.04488568 0.108244665 -0.052038807 -0.08412005 -0.048717525 0.064764395 0.09283563 0.11125904 -0.24575765 0.003815983 0.11858462 -0.19165199 0.046408605 -0.02874032 0.15056084 -0.03718786 -0.15398172 -0.08214677 0.24709947 -0.24300171 -0.038967326 0.10777295 -0.13406755 -0.2484991 0.14010969 -0.18642947 -0.007101871 0.04717875 0.07012981 0.08443942 0.16609643 0.17564246 0.12529886 -0.17468826 0.07975286 0.1666595 -0.2042261 -0.09449257 -0.046649735 -0.04636081 0.12208875 -0.1715685 -0.08246314 -0.22044818 -0.017140841 -0.15024565 -0.22344643 0.027928002 0.13154979 -0.066905856 0.1336342 -0.23706429 0.032319926 -0.09537804 0.0013946806 -0.18060668 0.18486005 -0.026533749 0.1786618 -0.25398836 0.18319277 0.023975978 -0.11981565 -0.0021738731 -0.010232101 0.08232174 0.07374199 0.036365073 -0.018370334 -0.031384315 -0.07036371 0.0011173843 0.02580588 0.107640706 -0.192837 -0.06407314 0.06801589 0.052194536 -0.039914362 0.018935071 -0.01931618 0.005075745 0.031181365 0.15439735 0.055809107 -0.055432156 0.0026433459 0.23185879 -0.20704958 -0.018510446 0.2275755 0.23042113 0.19551025 -0.0649082 -0.020823818 0.2793018 -0.006612497 -0.100125335 -0.1125265 -0.19706234 -0.03372994 -0.24818079 -0.21967943 0.07502111 0.07887406 -0.029968094 0.06784073 -0.028075375 0.15923513 0.13590412 0.07547762 0.017282726 0.015526141 -0.081636086 0.01664458 -0.2513018 0.11722377 -0.050710503 0.051023573 0.106977336 0.24380659 -0.13362452 -0.11535179 -0.20095432 0.10000423 -0.13475136 -0.080798164 -0.1891572 0.005645293 -0.12378568 -0.091423094
s 0.074706174 0.033703946 -0.18720804 -0.10874773 0.040038597 0.100893065 -0.023815775 -0.036986023 -0.009965538 0.17616348 0.07163197 -0.21815632 0.15589075 -0.06836502 -0.021017859 -0.04059384 0.0526724 -0.04063553 0.057380755 0.041551255 -0.0025402126 -0.031325784 0.009781079 -0.11644548 0.06556742 -0.05643219 -0.0027617305 -0.0034591353 0.052882493 0.055839237 0.21956207 0.017997446 0.01611408 0.043184828 -0.13956732 -0.038143728 0.11700171 0.14612126 0.1261569 -0.061748967 -0.18113618 -0.10649617 -0.14849788 0.08891895 -0.08451666 -0.029427206 0.069170795 0.043187793 0.24224183 0.032802954 0.09264991 0.012384427 -0.15232071 -0.09860294 0.14549614 -0.09669728 -0.028373078 0.069558874 -0.17115574 -0.0014808017 0.16780786 -0.019589894 -0.031644195 0.12022334 0.2952901 0.026737368 0.15141484 0.06141998 -0.09630066 0.026776504 0.12828054 0.009431203 -0.101256736 -0.07039615 0.10474148 0.09188144 0.06558652 -0.26327923 0.0299915 0.14213836 -0.13458683 0.038361885 -0.07157205 0.121245146 -0.04663918 -0.11880508 -0.0592843 0.2251385 -0.19053966 -0.07147875 0.122152634 -0.12870042 -0.22982363 0.13127732 -0.15224497 -0.013222625 0.0024302495 0.052232787 0.0044131074 0.149455 0.14342853 0.17619011 -0.102203555 0.110215746 0.12991397 -0.16826499 -0.068519644 -0.0329272 0.005911629 0.067338675 -0.17798944 -0.12829858 -0.1721436 -0.042350143 -0.13116154 -0.19403036 0.06616342 0.12095519 -0.002682782 0.15086769 -0.19654419 0.061591078 -0.08391035 0.025671106 -0.16996652 0.18054332 0.021184666 0.16807601 -0.20299445 0.15387751 0.006230555 -0.093248956 -0.012940638 -0.00073915184 0.110918 0.04918209 0.0044996347 0.027653381 -0.03850169 -0.09335686 -0.012044701 0.0276429 0.15811086 -0.1597152 -0.0623186 0.06942611 0.054744005 -0.04558088 0.044763427 -0.075502455 0.03514312 0.015257292 0.12135628 0.044126123 -0.02932402 0.028354343 0.16757137 -0.1761897 0.013688674 0.24356008 0.20502132 0.19995247 -0.0796432 -0.016025709 0.21461655 0.0028641464 -0.13806169 -0.10371114 -0.17030917 -0.045956146 -0.22489549 -0.20118016 0.08927952 0.035416845 -0.0310684 0.03108902 -0.018016234 0.109771684 0.14727749 0.06479098 0.033251338 -0.031866346 -0.05300026 -0.0032940304 -0.22518347 0.13461469 -0.070895284 0.018062372 0.052188173 0.20934069 -0.10158062 -0.09486782 -0.15587007 0.065005034 -0.14091632 -0.077092856 -0.20022656 0.004314221 -0.12699768 -0.09775407
galaxy 0.047949262 0.03228722 -0.24078068 -0.10768277 0.029905738 0.14330898 -0.039029084 -0.00795961 -0.03212306 0.15051654 0.13741808 -0.28795126 0.1720074 -0.03985497 -0.03259096 -0.031173935 0.03153596 -0.08305898 -0.0006076348 0.043307085 -0.0003981247 -0.022273503 -0.0882906 -0.08354973 0.013521032 -0.05723045 -0.010348771 -0.023042385 0.062239237 0.15055102 0.22796233 0.06907606 0.028517682 0.11293004 -0.15577047 -0.09074526 0.13916476 0.2164056 0.1726267 -0.022794185 -0.21408993 -0.14513375 -0.15888892 0.003124836 -0.08882284 -0.045385323 0.12770782 0.07916169 0.22924975 0.039012674 0.11899126 0.0130876945 -0.13728547 -0.08308005 0.10880853 -0.07077691 -0.024467539 0.08687027 -0.17628887 -0.06910406 0.1873616 0.0053943503 -0.107104845 0.122739494 0.3028221 -0.012410586 0.12815376 0.12005999 -0.098015904 0.035752743 0.097062655 -0.040114313 -0.12896872 -0.012289754 0.08769653 0.08891438 0.08407543 -0.3576571 0.051488828 0.11572496 -0.13149275 0.02044224 -0.052686002 0.119156666 -0.07424705 -0.14658043 -0.014991651 0.22630209 -0.21147537 -0.125171 0.087299205 -0.13826533 -0.30805096 0.13479868 -0.1731266 -0.015756056 0.10018529 0.03087265 0.028339125 0.25271347 0.17050695 0.24243672 -0.06733387 0.078150176 0.16799143 -0.23990332 -0.07813512 -0.010771252 -0.047005463 0.09438189 -0.23227021 -0.1432538 -0.2247528 -0.013647046 -0.15531513 -0.20848213 0.084272936 0.1809345 -0.033788096 0.12987083 -0.21770917 -0.011971204 -0.03537164 -0.030993452 -0.22384617 0.17334461 0.042492732 0.16666226 -0.23712151 0.1878034 0.019056952 -0.08367623 0.009116659 -0.0071372464 0.059426945 -0.041672844 0.048960824 0.009196625 0.0029761582 -0.132636 0.035266243 0.0176889 0.14618379 -0.20614323 -0.062075786 0.041051067 0.053566545 -0.019175235 -0.0611501 -0.06282786 0.047914486 0.01807405 0.12763341 0.037874114 0.013809618 0.045241944 0.1670086 -0.16625735 0.038461216 0.2573238 0.3065823 0.20147018 -0.084997244 -0.0368415 0.31069663 -0.036688264 -0.14275382 -0.101362556 -0.24693191 -0.06094331 -0.29540354 -0.22664094 0.027097113 0.030124238 -0.033215247 0.09673102 -0.016185367 0.08778235 0.11206689 0.027948648 0.0035860806 -0.00035648755 -0.07431782 0.020004889 -0.25872257 0.10898952 -0.07217621 -0.018047774 0.041316666 0.15942527 -0.07054642 -0.06151344 -0.19102986 0.10791864 -0.13220648 -0.06521473 -0.16746102 -0.008790454 -0.1700503 -0.05327916
g 0.092155874 0.034114774 -0.1822457 -0.1302621 0.034145456 0.075567186 2.0607135e-05 -0.038574953 -0.022897841 0.15766068 0.054668773 -0.21935204 0.16279893 -0.1281941 0.004932058 -0.07194091 0.06638933 -0.042360973 0.085898355 0.02806931 -0.021221746 -0.015449532 0.038980614 -0.17357406 0.11035278 -0.06108707 0.0056336224 0.0012377553 0.0625795 0.013866504 0.2474551 0.013158369 -0.021105656 0.012514238 -0.12647575 -0.025133533 0.11502829 0.1158253 0.09972703 -0.08207312 -0.17466307 -0.107174255 -0.13463439 0.11931519 -0.0822549 -0.03688776 0.037661713 0.051438797 0.30305597 -0.014718363 0.06942241 -0.010092565 -0.17535491 -0.09577801 0.15242417 -0.108541325 -0.06823502 0.073505625 -0.15148695 -0.0004923986 0.16798817 -0.05722985 0.0054019648 0.13802768 0.32839575 0.007883139 0.18234117 0.02670841 -0.09635796 0.06371011 0.1476351 -0.0023550454 -0.08174545 -0.07662862 0.09949706 0.10817663 0.089556165 -0.20672894 -0.009048093 0.14504915 -0.16785082 0.042817168 -0.06203395 0.14012623 -0.049478643 -0.10883476 -0.081299126 0.24762738 -0.21141484 -0.038049616 0.15545824 -0.12590885 -0.19203897 0.1382566 -0.16496478 -0.02170652 -0.010356443 0.07428836 0.02877892 0.11354371 0.13039172 0.12836646 -0.16158949 0.13057195 0.1366169 -0.15665898 -0.07930424 -0.06375038 -0.002302339 0.086672455 -0.15178369 -0.11365427 -0.1682088 -0.0295682 -0.112735234 -0.212337 0.053819828 0.10524639 -0.01403753 0.17696148 -0.20861852 0.0917131 -0.092309944 0.034993183 -0.1724439 0.20155731 -0.017721925 0.20051184 -0.20885037 0.15951602 0.024332587 -0.109071136 -0.006731247 -0.0059108557 0.12457792 0.115623854 -0.026254287 0.03477053 -0.05828816 -0.043336492 -0.028259132 0.03199743 0.14143825 -0.14121482 -0.07718322 0.08404291 0.06352947 -0.0488189 0.074277125 -0.07241523 0.02126886 0.01796003 0.14901923 0.05398319 -0.068294585 -0.00531442 0.21507661 -0.20187265 -0.00775343 0.243596 0.14650825 0.20426758 -0.07952115 0.0071531693 0.20249759 0.029420933 -0.14059892 -0.1154892 -0.15728177 -0.041002955 -0.2026388 -0.21845685 0.1226172 0.05147083 -0.02135484 -0.0022687297 -0.017420793 0.16385122 0.1787837 0.08319685 0.030935703 -0.025950914 -0.028541647 -0.02294556 -0.23166321 0.16590899 -0.07068831 0.053099025 0.09934064 0.2631432 -0.1210325 -0.14400241 -0.18297523 0.062425356 -0.14497392 -0.109482825 -0.22782566 0.004859446 -0.11766735 -0.14272715
samsung 0.09286901 0.035417 -0.20014466 -0.098972045 0.044023745 0.09613906 0.0019248289 -0.004121398 -0.021792963 0.15409054 0.08065283 -0.24785793 0.14635837 -0.061749335 -0.025746586 -0.033162776 0.0500954 -0.06423735 0.032843404 0.060090438 -0.016005762 -0.04219094 -0.021712404 -0.11854267 0.08438336 -0.07902612 0.004496068 -0.025794042 0.09570943 0.059531465 0.24489515 0.03489666 0.014329424 0.069092706 -0.152916 -0.05034733 0.12380317 0.16538155 0.14567983 -0.020546155 -0.17769021 -0.117213435 -0.14659566 0.05576257 -0.06968461 -0.04430759 0.066632085 0.047262 0.25484386 0.04078737 0.06842493 0.00918695 -0.17032504 -0.081410006 0.15104896 -0.09266583 -0.0052147266 0.06422055 -0.20098007 -0.036889493 0.17573977 -0.008086052 -0.042782977 0.13895825 0.31571913 0.013985712 0.15171179 0.057041284 -0.107700855 0.05128974 0.14538044 0.0058246176 -0.10642307 -0.045139607 0.11512134 0.1192657 0.098930545 -0.29170144 0.036648415 0.15654427 -0.13886791 -0.0038087172 -0.08090705 0.113981225 -0.08496842 -0.124969795 -0.022688966 0.23228483 -0.23618926 -0.09427465 0.12947935 -0.12937917 -0.22043757 0.12558073 -0.14837943 -0.021739513 0.025421744 0.03558517 0.009079012 0.18062042 0.14704317 0.21376786 -0.105979845 0.11941506 0.10673561 -0.19810095 -0.081784554 -0.037897307 -0.0075575775 0.08452078 -0.19189675 -0.15534888 -0.18033326 -0.030500539 -0.14392439 -0.20845656 0.095688894 0.14387587 -0.017628059 0.16436097 -0.20437829 0.051476415 -0.06653508 0.021218536 -0.22117633 0.20349291 0.053165615 0.18218294 -0.20648524 0.20024754 0.024553847 -0.070021056 0.007940339 -0.0009674473 0.102754794 0.03261012 0.018602671 0.03252962 -0.032001913 -0.081847474 0.008813541 0.029315948 0.19756408 -0.14763664 -0.0914602 0.058114298 0.045524392 -0.047711182 0.03267135 -0.09357625 0.029977031 0.032095425 0.13871098 0.06935613 0.015684336 0.019859 0.19888447 -0.18830003 0.032736152 0.2585279 0.21077165 0.20959082 -0.08552636 -0.017312443 0.22995979 0.013772623 -0.16146876 -0.11626615 -0.19272429 -0.048487745 -0.28616118 -0.21419795 0.06982071 0.054492906 -0.022912152 0.04668492 -0.025960078 0.117727324 0.12924549 0.05973965 0.026302695 -0.04261326 -0.05504168 -0.003669323 -0.24938318 0.14916804 -0.06926556 0.013279172 0.05655 0.23407038 -0.10973436 -0.12454466 -0.18663064 0.088738196 -0.13766368 -0.08985978 -0.2143777 -0.0013368801 -0.15211025 -0.092879415
سامسونگ 0.017726421 0.049368452 -0.21340902 -0.13408428 0.042829957 0.19440755 -0.09782543 -0.060405027 -0.008949516 0.2810136 0.16362903 -0.21667749 0.21069613 0.041616894 -0.031221827 0.016406586 0.034623574 -0.033106815 0.0051923282 0.027942033 0.035868075 -0.06286622 -0.032983832 -0.0055466024 -0.08997948 -0.03398874 -0.021133015 -0.003023208 -0.023461008 0.17035806 0.14326671 0.032968532 0.073288105 0.05377478 -0.13708232 -0.08442912 0.11054743 0.21445028 0.18787706 -0.07393257 -0.22700891 -0.10912534 -0.25574124 0.074119434 -0.08336048 -0.017026342 0.16626947 -0.052629154 0.11538894 0.13381761 0.20525119 0.07236396 -0.1307774 -0.12731428 0.12182273 -0.040977295 0.05548322 0.026545865 -0.17029701 0.027562093 0.18532656 0.06321901 -0.11800793 0.101257 0.20461181 0.08906403 0.09179082 0.18090269 -0.0903176 -0.08012085 0.091056064 0.058913805 -0.1842319 -0.08910191 0.09985363 0.032970063 -0.023968453 -0.39378005 0.12245599 0.11880073 -0.06419579 0.07782598 -0.13899918 0.13920604 -0.007167992 -0.16652614 -0.056865152 0.19821753 -0.10166087 -0.18589051 0.046140246 -0.14632258 -0.3570818 0.12627047 -0.13465998 0.009125078 0.017151412 -0.0065661003 -0.1056732 0.25265026 0.21820642 0.31056958 0.070199154 0.051219407 0.18098807 -0.16520911 -0.008904938 0.04341576 0.061655376 0.04374999 -0.2461076 -0.15939362 -0.1568065 -0.080144756 -0.15211943 -0.147364 0.04177996 0.12250495 0.055879835 0.09758551 -0.16428094 -0.016450077 -0.04366579 0.030017495 -0.13391979 0.07741483 0.042534325 0.08131493 -0.22045308 0.0787288 -0.07063773 -0.04247915 -0.04173116 0.020829022 0.092955664 -0.087121494 0.058911927 0.03814474 0.022289364 -0.22731604 -0.04940794 0.02008447 0.19832169 -0.21135508 -0.05430184 0.061587572 0.07057052 -0.06735937 -0.03173156 -0.14377187 0.06438052 -0.033699185 0.07348529 -0.019834723 0.003854682 0.15413527 0.026743704 -0.104317166 0.07136504 0.2704489 0.33789176 0.15653631 -0.08315324 -0.10226465 0.30813473 -0.07603014 -0.121703416 -0.06909803 -0.22060403 -0.05441397 -0.24056824 -0.19640608 -0.015924545 -0.048139844 -0.066069216 0.06699523 0.01510368 -0.02144083 0.12278839 0.04573068 0.0415953 -0.05985883 -0.09727962 0.051522177 -0.18553138 0.06358511 -0.057616837 -0.0736905 -0.028092947 0.04679571 -0.030453078 0.0048654596 -0.07405025 0.023693522 -0.14755571 -0.0049024764 -0.11928489 -0.056270823 -0.16020867 0.013474063
m 0.1180505 0.08375866 -0.16131502 -0.20445658 0.02956873 0.14010507 -0.030621575 -0.0071441946 -0.08494073 -0.037286326 0.0729538 -0.3303396 0.22022523 -0.14315218 -0.16014463 -0.04372792 0.05282246 -0.0054831444 0.10614588 0.11383691 0.06642768 0.020605061 -0.059371937 -0.08161945 0.107061826 -0.042850863 -0.051900886 -0.07710654 0.118297406 0.071648695 0.33674535 0.08109695 -0.07078001 0.07924927 -0.12857941 -0.043171324 0.08475467 0.21151774 0.1879028 -0.05311443 -0.355784 -0.16692571 -0.150277 0.07894447 -0.17736737 -0.0016106614 0.12000561 0.11170407 0.4459406 -0.040011678 0.07832232 0.020242412 -0.20731963 -0.060532358 -0.0017017974 -0.11854613 -0.044170678 0.15381113 -0.032752827 -0.13760915 0.2169323 0.017316978 -0.090005346 0.11978681 0.38161296 0.005517899 0.19615862 0.1116167 -0.037593666 0.18538484 0.17748198 0.009139152 -0.11869032 -0.0032895359 0.15075359 0.16401282 0.03257379 -0.3533183 -0.021613047 0.13130923 -0.07422858 0.11489274 -0.028115049 0.14226109 -0.11619617 -0.042261247 0.00061337964 0.22977223 -0.096132405 -0.1729595 0.23525198 -0.13289845 -0.23855492 0.17817317 -0.20470928 -0.0703937 0.15942816 0.08122579 -0.01896141 0.20955391 0.08801836 0.21192375 -0.088426694 0.20813847 0.24050948 -0.25540504 -0.16017033 -0.06290299 -0.03642153 0.008528562 -0.24330048 -0.22530864 -0.21978264 -0.0044447836 -0.08511013 -0.23091152 0.16953656 0.19690731 0.04366083 0.18393262 -0.24162285 0.10579423 0.047752433 -0.06307108 -0.29024658 0.24096218 0.060907222 0.21480182 -0.12379131 0.19906 0.027140442 -0.059684742 0.036440216 -0.0030828535 0.05283319 0.008483055 -0.06716356 0.12801033 -0.081116855 -0.052043367 0.048584417 -0.0003317413 0.15914318 -0.07898368 -0.06608515 0.10717325 0.09183712 0.048005544 -0.08596956 -0.13209775 0.1390878 -0.042088468 0.12804885 0.035985705 -0.07645307 -0.013919116 0.17559811 -0.1368934 0.02849149 0.33412403 0.19296415 0.23938376 -0.13872404 0.03414208 0.24795087 -0.025403328 -0.23676522 -0.16469328 -0.25206727 -0.058941796 -0.17471553 -0.288518 0.12440974 -0.03526528 -0.046428733 -0.0061916667 0.009424005 0.16480993 0.24109593 0.0074576805 -0.030525282 0.042442005 0.05647094 -0.058542147 -0.26509023 0.2702938 -0.11667586 0.00025813418 0.066466175 0.17805862 0.014515101 -0.108527176 -0.21857919 0.0696734 -0.17019984 -0.18462026 -0.24405518 0.022714049 -0.16591577 -0.1722794
128 0.14122625 0.049071264 -0.22193985 -0.16095617 0.008676963 0.012552316 0.040197883 -0.059351556 -0.021683978 0.1571355 0.005065144 -0.22504301 0.17996801 -0.2748896 0.07926766 -0.14283812 0.0890749 -0.034453537 0.15634707 -0.0024704277 -0.090018645 0.021382395 0.12184888 -0.29766926 0.23120813 -0.04561365 0.031146707 0.05608615 0.061728332 -0.07138798 0.2923351 0.0013639888 -0.043045565 -0.03404751 -0.09128929 0.009917173 0.15385449 0.022046166 0.014453661 -0.16070832 -0.13875943 -0.12637264 -0.09221335 0.16536224 -0.10821125 -0.0693191 -0.037638452 0.13730514 0.46809444 -0.13188757 0.04695582 -0.09368881 -0.19332309 -0.11123172 0.21099062 -0.15423924 -0.19345124 0.14141884 -0.121203825 0.05279991 0.15266955 -0.18947107 0.09309415 0.17368081 0.42445073 -0.05328 0.23583278 -0.026368259 -0.1214501 0.105841026 0.18727043 -0.055750377 -0.020125655 -0.127536 0.07384418 0.13468234 0.14228128 -0.069529414 -0.10763379 0.15400746 -0.2729719 0.08899903 -0.00049141736 0.19081487 -0.0026102257 -0.10538354 -0.18209788 0.312282 -0.27295068 0.08273034 0.2062235 -0.13686408 -0.15495065 0.16036403 -0.2191283 -0.024038788 -0.03156895 0.1684345 0.14570978 0.022047488 0.16001438 -0.04574252 -0.3470093 0.15518096 0.19507238 -0.15105563 -0.12260591 -0.11182612 -0.024455223 0.15249623 -0.07864883 -0.036873925 -0.21101093 -0.04235488 -0.13849568 -0.2744603 -0.022006903 0.083982445 -0.093143605 0.17829338 -0.287247 0.16241089 -0.16322549 0.06183622 -0.12381669 0.25609776 -0.1408152 0.24757877 -0.25659746 0.18053262 0.041964225 -0.20446597 -0.0010812248 -0.019372227 0.1609972 0.28736627 -0.053822972 -0.0048230067 -0.11024908 0.04692546 -0.06311825 0.021066142 0.067480646 -0.15328445 -0.0842195 0.14351065 0.07796323 -0.032863945 0.16008514 -0.0021708114 -0.015335431 0.034815 0.20282108 0.09038776 -0.20818819 -0.06439215 0.35237676 -0.28912547 -0.107418396 0.24216464 0.07096405 0.23083802 -0.06743184 0.05488085 0.18623416 0.08093012 -0.11774159 -0.14102785 -0.11710658 -0.022659902 -0.14173177 -0.24934927 0.2130554 0.11343616 -0.026040744 -0.028879004 -0.018213127 0.2997842 0.24338585 0.14650154 0.040264763 0.045476224 -0.028437011 -0.045303605 -0.25217208 0.20867589 -0.04882905 0.16113499 0.22307107 0.42985073 -0.19385521 -0.22868443 -0.23419422 0.06729644 -0.16811484 -0.15790302 -0.289906 0.0365293 -0.05261314 -0.23085159
sm 0.06802129 0.025242507 -0.26913005 -0.1221109 0.003884739 0.09221704 0.012345573 -0.023307238 -0.04210852 0.15993018 0.122153066 -0.28820422 0.16750322 -0.12851368 0.046451192 -0.08835368 0.048941094 -0.08586773 0.03300077 0.0078206295 -0.06208174 -0.009505212 -0.042630617 -0.17136677 0.086382516 -0.053975098 0.009993703 0.018806405 0.07061305 0.09585157 0.2505913 0.0690176 0.02438165 0.070250735 -0.13994399 -0.06875986 0.17418514 0.1418597 0.112599224 -0.070087865 -0.16097642 -0.15749918 -0.110918686 0.022360932 -0.07176735 -0.07333817 0.07286892 0.12788205 0.3267767 -0.04841816 0.0990797 -0.052423578 -0.15558216 -0.098481625 0.16126691 -0.09344488 -0.10719826 0.12407238 -0.17236114 -0.021666812 0.16093677 -0.10350292 -0.04496275 0.16106686 0.35297918 -0.059481032 0.14550409 0.08601798 -0.117926285 0.063655436 0.11307306 -0.089798614 -0.0892087 -0.027048476 0.060663275 0.10617013 0.1366729 -0.2581867 -0.016779223 0.110919245 -0.21453126 0.045968637 -0.023324367 0.15823108 -0.03571297 -0.15795264 -0.085952476 0.25662175 -0.2813738 -0.035642073 0.10610101 -0.14202136 -0.2797708 0.13983162 -0.21643019 -0.008283103 0.08749041 0.0838041 0.12072136 0.18247344 0.18885776 0.11082799 -0.21063732 0.08861815 0.19022025 -0.23809521 -0.10470955 -0.05618322 -0.07988929 0.16033404 -0.16853295 -0.07590771 -0.2517892 -0.017861957 -0.17034572 -0.24141027 0.026004948 0.1539633 -0.10132592 0.14443775 -0.26175925 0.0076397387 -0.08652069 -0.016944027 -0.20471096 0.19645588 -0.041214377 0.20075634 -0.28773308 0.20822424 0.048108205 -0.1358934 0.0068169595 -0.012518253 0.06627628 0.07598544 0.050923437 -0.033056773 -0.0171173 -0.06171746 0.0186646 0.01887543 0.08592852 -0.21372019 -0.08111932 0.06499635 0.057564914 -0.032088842 -0.003986406 0.0061282315 -0.00058749714 0.04807521 0.17004983 0.07262939 -0.06864209 -0.012601256 0.26369306 -0.21957822 -0.03616383 0.2224126 0.24707052 0.19614767 -0.058863144 -0.02216684 0.31694493 -0.01661039 -0.09451889 -0.11880184 -0.2197746 -0.030527368 -0.26680985 -0.24163218 0.06440157 0.09407218 -0.038075943 0.08223212 -0.019643895 0.17454773 0.13195573 0.08045691 0.0076120133 0.043904647 -0.08448774 0.024090176 -0.27019498 0.11867558 -0.041578896 0.065560505 0.14054799 0.2675153 -0.14131361 -0.13853991 -0.2223799 0.1227015 -0.13857532 -0.08482507 -0.19985716 0.00063993485 -0.12684649 -0.09575812
32 0.1242519 0.051662546 -0.18797585 -0.15417898 0.0138826715 0.026136385 0.027630053 -0.051283307 -0.014916968 0.15519682 0.007022243 -0.19754346 0.1717484 -0.22998433 0.05687231 -0.11048641 0.07615592 -0.026799185 0.146559 0.007836987 -0.0682402 0.009991989 0.117376514 -0.25810778 0.18569578 -0.039967787 0.029700931 0.045753572 0.054422982 -0.062458605 0.26563814 -0.011463066 -0.037150957 -0.035658967 -0.083469294 0.009723366 0.12717675 0.033176426 0.02682656 -0.1443526 -0.14220145 -0.10486554 -0.11202062 0.16429417 -0.1006497 -0.053400602 -0.020679438 0.09657255 0.40928367 -0.092727706 0.058565818 -0.06927105 -0.18598771 -0.107411355 0.18833119 -0.13774712 -0.14973505 0.11028874 -0.11709452 0.050861344 0.1505296 -0.14196901 0.07862861 0.15779321 0.37560016 -0.023900226 0.21398586 -0.017479405 -0.11098145 0.07879281 0.17547326 -0.020788858 -0.034375794 -0.12300962 0.07881169 0.12281775 0.108353294 -0.09182274 -0.07371084 0.1488822 -0.23162554 0.08258912 -0.025070742 0.17137069 -0.009154815 -0.10179509 -0.15669392 0.28961647 -0.2368188 0.041892778 0.19199292 -0.12423594 -0.14557317 0.14549741 -0.19163203 -0.021769552 -0.042936563 0.13365991 0.0943173 0.035820346 0.14701694 -0.0032499344 -0.27109867 0.14451253 0.16528879 -0.133668 -0.10112955 -0.09502633 0.0012514027 0.11617552 -0.0917004 -0.06413319 -0.17726679 -0.039953727 -0.12293066 -0.24245247 -0.01099103 0.08140476 -0.05677897 0.16514856 -0.25075543 0.15447731 -0.14343344 0.06153091 -0.116640165 0.2351947 -0.10602487 0.21660921 -0.22403775 0.15979543 0.024750303 -0.16943672 -0.00478835 -0.016462117 0.15475029 0.24482481 -0.049311705 0.012751085 -0.10170001 0.024044232 -0.06317491 0.025623575 0.09133276 -0.13181016 -0.076815344 0.13575792 0.07525913 -0.041121025 0.15175341 -0.034736987 0.0008139154 0.019156953 0.17258182 0.07538822 -0.1678804 -0.044629306 0.29367244 -0.25520343 -0.073574506 0.24636422 0.07333547 0.2083903 -0.06913273 0.037870206 0.16692866 0.07076882 -0.12393774 -0.12805009 -0.1140984 -0.018054673 -0.14217076 -0.22968122 0.19202174 0.08128628 -0.030200936 -0.030391151 -0.014942998 0.2500034 0.22539614 0.12839147 0.04292743 0.022608884 -0.028311558 -0.039620478 -0.22550167 0.18712826 -0.052892618 0.12004468 0.1744172 0.36904633 -0.16678728 -0.19354479 -0.19765718 0.046218097 -0.15654165 -0.14572899 -0.26115885 0.03061131 -0.055312164 -0.20545354
3 0.09931114 0.054163404 -0.13160752 -0.14602306 0.050001863 0.09640116 -0.025771102 -0.04536733 -0.016703488 0.14874753 0.03989273 -0.19367813 0.17001766 -0.0841523 -0.05319981 -0.03858893 0.054293998 -0.005156063 0.10901724 0.05785073 0.020197408 -0.025256053 0.066322476 -0.11801129 0.098676644 -0.04555192 0.00090887473 -0.014210891 0.04194361 -0.0099816015 0.22725745 -0.0007394243 -0.02071159 -0.00078522484 -0.106786035 -0.0185034 0.0753882 0.12986012 0.124714494 -0.09164517 -0.22348638 -0.08012452 -0.16430622 0.15074185 -0.10105919 -0.0062348805 0.05390903 0.0073948 0.28169817 0.033581372 0.08437833 0.03397394 -0.17295086 -0.09371797 0.11841642 -0.09937121 -0.012599356 0.057083916 -0.12193672 0.006539038 0.16522276 0.0111143375 -0.0035315836 0.10798431 0.28394344 0.062402613 0.17587937 0.048275538 -0.0782681 0.036928426 0.16275287 0.062688954 -0.10392272 -0.10577387 0.13325061 0.09993052 0.021071568 -0.2411956 0.014146665 0.15636761 -0.09268835 0.06339572 -0.08828778 0.124551594 -0.046033107 -0.08833584 -0.06833648 0.2377666 -0.12693457 -0.085108556 0.15682964 -0.12199692 -0.18855958 0.13397443 -0.13080522 -0.016588474 -0.03462908 0.057268474 -0.057620656 0.10912433 0.115077265 0.17407905 -0.07873877 0.14464909 0.13337804 -0.12756433 -0.07681092 -0.04148839 0.061699692 0.021144623 -0.170448 -0.16187315 -0.1253004 -0.054363064 -0.09842424 -0.19364412 0.07900044 0.09937898 0.050265796 0.1566196 -0.17703968 0.12401213 -0.06927773 0.05398565 -0.1512558 0.17585965 0.027441712 0.152549 -0.15656313 0.12646317 -0.012581876 -0.06734172 -0.008505833 0.0040443377 0.13763525 0.085850045 -0.054544892 0.08272135 -0.07501972 -0.077034436 -0.048475217 0.023659915 0.19111899 -0.100319766 -0.059598323 0.10105418 0.07308624 -0.0465156 0.07656824 -0.12931557 0.05614173 -0.019077662 0.105982475 0.026452348 -0.06362651 0.042526513 0.13535595 -0.15930119 0.021001158 0.27482092 0.14799118 0.20235816 -0.09530608 0.0006644706 0.1584987 0.018236728 -0.18350604 -0.11324628 -0.15416217 -0.053328883 -0.16082413 -0.19324502 0.12095745 -0.011185281 -0.04248929 -0.011263211 -0.0002659504 0.11244892 0.18986826 0.072465904 0.037402727 -0.046878908 -0.0017067271 -0.025446711 -0.19156635 0.18505555 -0.081784435 0.028401874 0.038485236 0.21209185 -0.0718845 -0.105075635 -0.1302433 0.010114931 -0.14781801 -0.10713695 -0.21505399 -0.0023766356 -0.1114053 -0.13358219
جی -0.01833397 0.04588305 -0.15948093 -0.14157331 0.08011323 0.24060106 -0.16549239 -0.080043934 0.0527238 0.42924643 0.164072 -0.14115803 0.2428471 0.13902186 -0.03479816 0.074347965 0.036553547 0.028778603 0.04522067 0.0040844735 0.113097355 -0.106058165 0.07733131 0.020946981 -0.14910552 -0.005174074 -0.033767905 0.023884622 -0.08101926 0.11110273 0.09798787 -0.051238578 0.08861253 0.00485913 -0.13035241 -0.082971424 0.070502 0.23249342 0.23447189 -0.12843375 -0.29241344 -0.047415584 -0.37775674 0.20607859 -0.080876805 0.032173593 0.1927107 -0.21581586 -0.016102416 0.28339282 0.26631495 0.18649662 -0.1362242 -0.1627907 0.1574297 -0.03798947 0.15177083 -0.09685532 -0.20313661 0.093273014 0.21226948 0.15567136 -0.06950144 0.07959798 0.11451815 0.22570868 0.12511234 0.20114295 -0.088743314 -0.21013905 0.10782224 0.18204406 -0.20958944 -0.17674294 0.15814508 -0.011750764 -0.11259245 -0.4653716 0.1927279 0.1768553 0.046048544 0.0940432 -0.26474226 0.1376294 0.009731644 -0.20871806 -0.089791246 0.21457118 0.011573898 -0.25137126 0.037752748 -0.17110872 -0.4000818 0.138976 -0.05790176 0.033896565 -0.14806694 -0.08940601 -0.3065805 0.25823316 0.21764699 0.46537167 0.21456991 0.039541814 0.14440475 -0.06305328 0.07630238 0.068726465 0.21026784 -0.009320851 -0.2717775 -0.24867198 -0.05483027 -0.15669087 -0.13902037 -0.13578112 0.059014346 0.06791066 0.19299527 0.103922464 -0.077092245 0.059110086 -0.08448898 0.11031192 -0.058058023 -0.006149701 0.056557726 0.018372688 -0.21804352 0.0019513359 -0.17280318 0.017874531 -0.07315284 0.028036607 0.17678368 -0.11343392 -0.0030822225 0.10791518 0.015846878 -0.33574563 -0.16129102 0.039421972 0.31328195 -0.23097801 -0.04662093 0.07115877 0.07801077 -0.14380655 0.045822926 -0.2914485 0.06595565 -0.11058059 0.000724385 -0.09201053 0.037282147 0.27457905 -0.088274516 -0.069984145 0.16842459 0.3595341 0.3662635 0.16972624 -0.10336807 -0.16889961 0.28431556 -0.06191684 -0.1912876 -0.036844317 -0.2133614 -0.09748446 -0.22851166 -0.17216496 -0.005522761 -0.15081833 -0.11873761 0.031902395 0.049403425 -0.11191674 0.15840343 0.074553095 0.10154498 -0.19075595 -0.043359604 0.042538673 -0.14751743 0.0770774 -0.061733287 -0.1220471 -0.13231684 -0.017994102 -0.011208197 0.07968492 0.012662198 -0.08572125 -0.16292112 0.052994844 -0.12258331 -0.11175171 -0.17299269 0.056197457
2 0.088076316 0.044322733 -0.14998674 -0.11246951 0.051690757 0.07989474 -0.015001493 -0.03800399 0.0050336234 0.20748998 0.041550852 -0.18411566 0.15473557 -0.08085246 -0.0048785964 -0.03714142 0.061776858 -0.021384565 0.094947204 0.03409518 -0.005188102 -0.032486536 0.07570889 -0.14693464 0.09540887 -0.05123856 0.01339805 0.007465698 0.045896605 -0.01760191 0.21473362 -0.011991358 0.0056315055 0.002502974 -0.11650729 -0.017412588 0.10108632 0.109631956 0.10764204 -0.081283174 -0.17301425 -0.07866436 -0.16605529 0.14751829 -0.07130464 -0.017486954 0.034422114 -0.0021789048 0.24617538 0.0501143 0.08290588 0.016918818 -0.17382854 -0.100788146 0.16384019 -0.10755466 -0.018991478 0.032978874 -0.17220066 0.03035671 0.16381471 -0.015566888 0.014786718 0.12168123 0.2904638 0.06008541 0.18019837 0.019378318 -0.103800364 0.010038789 0.1557637 0.055885762 -0.091593325 -0.11861947 0.1195407 0.09904963 0.050853025 -0.2211152 0.025313111 0.17237462 -0.12754549 0.033430483 -0.10465669 0.12865941 -0.046406593 -0.116665155 -0.084273234 0.25185704 -0.18313153 -0.06604225 0.14072137 -0.12470454 -0.1914944 0.12650013 -0.13315572 -0.0125545645 -0.067546345 0.049145695 -0.03766606 0.10364607 0.14242265 0.17523395 -0.100644104 0.123745054 0.09662255 -0.12155598 -0.055409603 -0.045874283 0.06650205 0.059918888 -0.15408462 -0.13758539 -0.123891614 -0.0611295 -0.114944786 -0.20006104 0.058052305 0.08704018 0.03312772 0.16012008 -0.17927392 0.1152774 -0.105876796 0.07586989 -0.13633369 0.17757547 0.01043944 0.16217037 -0.19296004 0.13631901 -0.010444886 -0.0835687 -0.009641112 -0.0013528364 0.15794687 0.10928475 -0.026755773 0.05548909 -0.06890047 -0.07585815 -0.067707255 0.03377486 0.19344561 -0.13334557 -0.08184685 0.08542859 0.06195477 -0.06834079 0.11734697 -0.12322762 0.023890873 -0.0013180154 0.11994106 0.044807147 -0.04449085 0.04273929 0.16510665 -0.1839874 0.021069806 0.27084264 0.14845796 0.20440784 -0.08706352 -0.009024091 0.16669004 0.03687542 -0.16163175 -0.100731276 -0.14263873 -0.05188296 -0.20157167 -0.19623694 0.119441256 0.02058867 -0.034701444 -0.0049216547 -0.014365894 0.12419231 0.16702656 0.09122187 0.056149162 -0.064512916 -0.025471037 -0.02283636 -0.2054382 0.15347525 -0.0647623 0.035395373 0.052190583 0.2468789 -0.11671561 -0.118174404 -0.14135993 0.021446345 -0.1401974 -0.092106886 -0.21717268 -0.0026763955 -0.11079957 -0.11623467
64 0.14178377 0.056249276 -0.20800894 -0.1624924 0.020648895 0.024531445 0.028631799 -0.0627482 -0.013085603 0.16878772 -0.0059796562 -0.20784904 0.18453355 -0.25039208 0.06207164 -0.12048457 0.08709718 -0.018791473 0.16416672 0.0046044267 -0.07340654 0.014747034 0.13846879 -0.2828066 0.21341012 -0.047174394 0.03040099 0.052537415 0.054138556 -0.0772135 0.28300104 -0.015127635 -0.037969287 -0.046682708 -0.09292199 0.016703777 0.13770354 0.031536777 0.020789614 -0.16132 -0.15101849 -0.11057254 -0.117574275 0.18742603 -0.11346445 -0.052703373 -0.02767422 0.109172314 0.44213653 -0.10807228 0.057314556 -0.0731066 -0.19450268 -0.12157759 0.20826878 -0.15019268 -0.16755371 0.12754427 -0.12900357 0.05941353 0.16077493 -0.15821502 0.09121997 0.16508478 0.41247788 -0.027333032 0.23607418 -0.026226746 -0.11752312 0.084423535 0.18904056 -0.027100077 -0.034524694 -0.14344187 0.08549921 0.12813416 0.11325121 -0.08610029 -0.086359315 0.16266172 -0.24898005 0.087088205 -0.021809869 0.18302754 -0.00016190705 -0.10880694 -0.17862105 0.31476653 -0.24777281 0.05503167 0.20944104 -0.13647974 -0.15633513 0.15607028 -0.20649146 -0.022407237 -0.051870413 0.15482317 0.100869775 0.024263252 0.15779057 -0.016485821 -0.3007637 0.16284996 0.17617084 -0.13211213 -0.11370667 -0.09712905 0.0039116023 0.12611827 -0.09248411 -0.064289786 -0.19179888 -0.04729081 -0.13411321 -0.26085347 -0.010217846 0.07902907 -0.06545933 0.17286895 -0.2721366 0.17286141 -0.15496528 0.07435582 -0.11712315 0.25245985 -0.11881913 0.23386799 -0.23811604 0.16345112 0.029114798 -0.188769 -0.0041087684 -0.01620414 0.17541845 0.27557516 -0.061552875 0.018569844 -0.11045048 0.029114861 -0.072202094 0.02329809 0.09829318 -0.14169274 -0.08040944 0.14733872 0.08290353 -0.04223774 0.17052272 -0.037122685 -0.0027137601 0.024753226 0.18652506 0.07765639 -0.19647868 -0.047332358 0.31945863 -0.27363563 -0.09145452 0.26143622 0.07656914 0.23315781 -0.07592773 0.05022609 0.17010832 0.08306492 -0.13408951 -0.13417181 -0.113307305 -0.022543918 -0.13925187 -0.24172157 0.21424624 0.08397399 -0.03532146 -0.03426375 -0.01610029 0.28182334 0.24976605 0.13969335 0.04955957 0.019776396 -0.025428377 -0.04686016 -0.23949663 0.20669532 -0.05914048 0.14174597 0.19915605 0.40621254 -0.17597386 -0.21247296 -0.21017273 0.04681374 -0.17459023 -0.1595345 -0.28861856 0.028652916 -0.054893855 -0.22425888
8 0.111339144 0.06722021 -0.1522248 -0.16902556 0.03587864 0.09643029 -0.025451342 -0.030626506 -0.041815374 0.097028635 0.044019006 -0.2341973 0.18735549 -0.13078022 -0.06637333 -0.05235532 0.055152025 -0.009036372 0.11474944 0.06462179 0.015603652 -0.0068953694 0.03231975 -0.13026425 0.11417101 -0.037595328 -0.01416617 -0.02523988 0.060403954 0.0069919857 0.2646571 0.018840939 -0.039859217 0.012170915 -0.10496804 -0.019203011 0.08713946 0.1273549 0.12170573 -0.0895865 -0.23837577 -0.10819665 -0.1564312 0.1273732 -0.12288488 -0.014868105 0.062614456 0.052465044 0.3554486 -0.016202532 0.07799262 0.0063784444 -0.18802561 -0.0910874 0.09525554 -0.10834154 -0.049601525 0.103890724 -0.088544294 -0.024907108 0.17825691 -0.0137339765 -0.012862402 0.11846926 0.33331138 0.026173428 0.18470922 0.05700717 -0.06927321 0.08821717 0.17403962 0.031024145 -0.09537231 -0.0784036 0.12404532 0.1194439 0.038686417 -0.2453252 -0.010458363 0.14253855 -0.11541188 0.08360687 -0.059289023 0.13627161 -0.05408802 -0.076389864 -0.06592167 0.24088694 -0.13746923 -0.09122689 0.18286337 -0.1261122 -0.1960412 0.14865603 -0.16731136 -0.031253207 0.024321867 0.08433225 -0.017458327 0.12702733 0.11713868 0.14784496 -0.11271716 0.16340062 0.17433602 -0.1665263 -0.1051965 -0.059115943 0.023095686 0.035054654 -0.17634298 -0.16704838 -0.16371185 -0.03675032 -0.09496695 -0.2160561 0.08713879 0.12386429 0.028157694 0.162331 -0.21437193 0.12316214 -0.049647257 0.01611981 -0.1752286 0.2085261 0.012062801 0.17857814 -0.15633625 0.14926234 0.009937398 -0.084426396 0.005480795 -8.19181e-05 0.1206098 0.095082395 -0.059873622 0.07922764 -0.08103395 -0.045714866 -0.022660628 0.020085603 0.16497618 -0.10443337 -0.06333505 0.11402471 0.080534965 -0.016149046 0.0459981 -0.11305897 0.07235387 -0.02754794 0.124988616 0.04105158 -0.094093665 0.0093600135 0.17436457 -0.173225 0.0049567586 0.28805336 0.14503883 0.21514969 -0.10062396 0.016037691 0.18877564 0.0124619845 -0.18251406 -0.12725711 -0.17333996 -0.047206175 -0.16107234 -0.22821234 0.13139585 -0.0011640672 -0.04273295 -0.015185283 0.0005939049 0.15924014 0.20942427 0.058846686 0.014234862 -0.008059205 0.0070610372 -0.03554333 -0.21821333 0.20836934 -0.085915245 0.041804876 0.07543421 0.22685587 -0.05793493 -0.12236332 -0.16319686 0.036177885 -0.16361178 -0.1414732 -0.22518204 0.013117858 -0.11398389 -0.16680875
f 0.106990576 0.0449546 -0.23729128 -0.1551003 0.0017330035 0.059382353 0.02016235 -0.03972075 -0.0550822 0.1046965 0.060845423 -0.28398028 0.18399534 -0.21172833 0.027814519 -0.11886797 0.0678254 -0.056999728 0.10062639 0.0199662 -0.05936103 0.024983324 0.012967085 -0.22423735 0.1648761 -0.04418764 0.00982076 0.012842832 0.080378085 0.019672085 0.29014644 0.049012713 -0.030721068 0.023381002 -0.12852646 -0.040591966 0.15893805 0.09713585 0.083193734 -0.09644753 -0.18506142 -0.15120187 -0.087753594 0.088022195 -0.09385255 -0.06661599 0.026915109 0.14652342 0.42229888 -0.098842286 0.06305155 -0.06322228 -0.17758836 -0.08600047 0.14144254 -0.11776155 -0.14944653 0.14901972 -0.12518135 -0.017222343 0.16048962 -0.13134627 0.0070342836 0.16296396 0.3970901 -0.07317418 0.19403192 0.028078899 -0.0997661 0.116523586 0.14299451 -0.07669246 -0.057385653 -0.04782069 0.07015865 0.124296956 0.13560553 -0.18344387 -0.06664478 0.12400928 -0.23355246 0.07406199 0.0026927213 0.17738065 -0.04220216 -0.116823584 -0.11639206 0.2741371 -0.25980726 0.00085111405 0.16703455 -0.13137145 -0.20890744 0.1576637 -0.2278252 -0.028778147 0.06954103 0.12639594 0.13400836 0.11768846 0.14764471 0.0413438 -0.27368048 0.13113214 0.20868309 -0.20653754 -0.13245825 -0.09437529 -0.06382751 0.141813 -0.14423227 -0.06906297 -0.24695338 -0.008671052 -0.13496245 -0.2608263 0.030142834 0.12804678 -0.08399854 0.17317021 -0.26864752 0.083126605 -0.09738208 -0.0032821032 -0.18699491 0.23647948 -0.07453118 0.22918284 -0.2550166 0.20297973 0.05433902 -0.1544878 0.012810418 -0.008223886 0.09687144 0.15737812 -0.008454863 -0.0057518166 -0.07996123 -0.0030782807 0.0024526895 0.016208861 0.07214775 -0.16866156 -0.07800943 0.096474044 0.06581908 -0.015413982 0.039549064 0.0030062643 0.018970517 0.03330992 0.1907779 0.08066351 -0.13742445 -0.047827356 0.30100584 -0.23330706 -0.057370286 0.2437255 0.15745488 0.21855551 -0.072770305 0.03294037 0.26056594 0.012440244 -0.112663954 -0.1434733 -0.18300936 -0.023124645 -0.20063001 -0.25548497 0.14236608 0.09233885 -0.031678323 0.030004194 -0.02318128 0.24478859 0.19957133 0.10096786 0.008996411 0.062096696 -0.03567525 -0.016317667 -0.2699587 0.1909643 -0.049884442 0.10420906 0.1698765 0.33755043 -0.14558703 -0.17872103 -0.2465507 0.10405126 -0.15070309 -0.1338176 -0.24805407 0.025161412 -0.101514846 -0.1746725
ال -0.023859533 0.057347946 -0.14371948 -0.13748994 0.064478174 0.22580901 -0.17421176 -0.0941286 0.03630863 0.39539543 0.16596167 -0.14209825 0.24150205 0.109365016 -0.023675647 0.055257108 0.03218517 0.03380356 0.053384606 -0.0033946706 0.09599307 -0.08045711 0.075418755 0.025103211 -0.1425496 0.01175428 -0.048450377 0.018528488 -0.07891584 0.09838816 0.09887902 -0.03909284 0.096266635 -0.0009402573 -0.10387989 -0.07505284 0.06419095 0.211114 0.23187615 -0.14264002 -0.28132603 -0.06473281 -0.3403101 0.19825304 -0.072807424 0.034556594 0.18559654 -0.18526974 0.009471293 0.2559524 0.26714888 0.16316116 -0.14242452 -0.16958988 0.14371094 -0.03674665 0.12958792 -0.066134036 -0.19147904 0.10337651 0.20439373 0.13501473 -0.06869992 0.08513119 0.11242965 0.21523716 0.12537709 0.20812151 -0.07030791 -0.18048175 0.109090514 0.17170356 -0.18734746 -0.16976279 0.12936233 -0.018213298 -0.10817278 -0.4249222 0.17854856 0.14326978 0.03868903 0.10195142 -0.24131799 0.15131629 0.012625814 -0.20131953 -0.102401964 0.21744825 0.0054526525 -0.2465633 0.029739123 -0.16147082 -0.41135567 0.15142086 -0.069378786 0.03486098 -0.13280481 -0.06790351 -0.2783926 0.24086624 0.21350269 0.42580384 0.1860434 0.041491732 0.15090145 -0.074276514 0.05764325 0.06138099 0.20016076 0.004702079 -0.267157 -0.23270845 -0.05279453 -0.1657492 -0.14436595 -0.13253023 0.027898433 0.07149693 0.19055744 0.08387541 -0.09410343 0.054895546 -0.072134376 0.109372735 -0.059609592 -0.0045346986 0.032602135 0.020098923 -0.21796876 0.00577159 -0.16470121 0.003486231 -0.06339388 0.029517818 0.16997921 -0.08178541 0.00076288544 0.09020996 0.010037603 -0.3142747 -0.16539863 0.051171005 0.28323716 -0.2188484 -0.053984858 0.07082186 0.082273126 -0.11225944 0.040033773 -0.27352068 0.057941023 -0.116401106 0.0032921229 -0.09203225 0.01530025 0.26101962 -0.09023829 -0.05846828 0.14007482 0.35060793 0.35823843 0.16146119 -0.10547917 -0.15420888 0.28343418 -0.07298546 -0.16896832 -0.05056305 -0.20699029 -0.089109525 -0.19937083 -0.1743302 -0.00528046 -0.14364515 -0.11581184 0.02637485 0.04217581 -0.082576714 0.15974133 0.07726731 0.0953083 -0.1640111 -0.037828222 0.02555972 -0.15200475 0.070419185 -0.067070894 -0.110781714 -0.09862905 -0.014018195 -0.002024035 0.07472923 0.016707307 -0.083672725 -0.16785866 0.044644207 -0.1241319 -0.110792115 -0.15338072 0.050881356
1 0.09845827 0.042694837 -0.15131728 -0.12939008 0.05110364 0.06745222 -0.0069700954 -0.062460724 0.003404758 0.22021893 0.023788933 -0.16773386 0.15503663 -0.12512235 0.015674684 -0.063044235 0.072716184 -0.00848073 0.12069927 0.026119888 -0.01579436 -0.025593301 0.11342234 -0.18613145 0.12435067 -0.049534563 0.014093767 0.027629597 0.029535493 -0.047947846 0.21773377 -0.024083719 -0.010376316 -0.029061558 -0.10519986 0.0017353588 0.09990776 0.08028294 0.07639591 -0.11678329 -0.15923804 -0.075701684 -0.15585506 0.18223277 -0.07837706 -0.02602103 0.013498657 0.007045174 0.2801743 0.016940963 0.07924912 -0.0026757477 -0.17578071 -0.10935888 0.18239172 -0.12360694 -0.047568083 0.046271004 -0.15439647 0.06177334 0.1572701 -0.05543236 0.040018335 0.12423586 0.30302858 0.04869478 0.1973237 0.0077867573 -0.107649654 0.01403475 0.17125754 0.052490376 -0.06678755 -0.13859093 0.1083874 0.08938181 0.052502263 -0.17035721 -0.0042398474 0.17118973 -0.1450202 0.05491698 -0.082532205 0.14043292 -0.019490663 -0.10317784 -0.12467725 0.2650179 -0.186996 -0.016183218 0.14926359 -0.12454663 -0.17256154 0.12876068 -0.14339194 -0.0111874025 -0.09096301 0.07288958 -0.014783528 0.06356553 0.1385392 0.11910954 -0.14577746 0.13523367 0.120335475 -0.096359015 -0.058089558 -0.054479275 0.061218042 0.07231985 -0.118419 -0.11033186 -0.12099958 -0.0670482 -0.11234747 -0.20758179 0.032807518 0.069927864 0.01537681 0.16324574 -0.19203174 0.1359215 -0.1306691 0.08714554 -0.10500538 0.18723115 -0.02974317 0.16978516 -0.19177502 0.12494407 -0.009989988 -0.10664277 -0.020451602 -0.004479242 0.18057294 0.15930153 -0.046101738 0.042601593 -0.08350733 -0.06300317 -0.08278089 0.02775111 0.16682135 -0.129568 -0.07256921 0.10682228 0.07142519 -0.07099373 0.15204395 -0.100451685 0.011675092 0.0053835 0.12702404 0.050491918 -0.09561164 0.02879697 0.18721572 -0.20725462 -0.015239834 0.25758493 0.116930276 0.19524336 -0.08153848 0.007108777 0.14526394 0.04630811 -0.14644772 -0.11093789 -0.11866279 -0.038755216 -0.16682653 -0.19420874 0.15337731 0.027119935 -0.0323863 -0.025866223 -0.0025462685 0.15647991 0.19811891 0.11536355 0.060948055 -0.051918343 -0.028383326 -0.021648467 -0.19555283 0.16695201 -0.059653748 0.06726716 0.08401766 0.2829935 -0.13778797 -0.14265935 -0.14433178 0.013499053 -0.14847673 -0.09712874 -0.22891912 0.0023755375 -0.08726545 -0.14270955
ds 0.11291259 0.023680415 -0.25088096 -0.1340507 -0.016749583 0.013695652 0.04955222 -0.048964556 -0.037915315 0.15820915 0.055786975 -0.2535289 0.16186215 -0.23776901 0.1025977 -0.14197594 0.077914864 -0.066289134 0.109488726 -0.0108735105 -0.09594119 0.011841387 0.064310126 -0.27705052 0.19036233 -0.037781946 0.04622445 0.050590012 0.07002386 -0.019961072 0.27933234 0.025958478 -0.01814792 0.005460202 -0.11351157 -0.024985772 0.18317619 0.05549282 0.034901816 -0.11682748 -0.11360735 -0.15033802 -0.079742335 0.10487504 -0.07880436 -0.08682706 -0.012079293 0.14188564 0.4225942 -0.12750185 0.06513008 -0.09505106 -0.17298056 -0.0979642 0.21313544 -0.12630521 -0.18318388 0.13764542 -0.1440393 0.02433565 0.143856 -0.19186267 0.05287869 0.17825668 0.40590268 -0.09094869 0.20951974 -0.00417767 -0.12782304 0.0994346 0.15558276 -0.09459596 -0.03422696 -0.08822028 0.050216958 0.12659512 0.1644423 -0.11006985 -0.08364695 0.14156875 -0.29471612 0.066867 0.012182848 0.18774956 -0.013652716 -0.14248958 -0.15269485 0.30219832 -0.31776384 0.075930946 0.16380808 -0.13791819 -0.19165263 0.1547492 -0.21789849 -0.016094094 0.018126097 0.14394352 0.18123952 0.066872016 0.17809905 -0.017342323 -0.3431837 0.116710074 0.19874322 -0.19368282 -0.12020587 -0.09690364 -0.071601234 0.1822081 -0.10332449 -0.017874835 -0.23299955 -0.014807421 -0.14979894 -0.27799526 -0.034020025 0.10992145 -0.1261681 0.16630745 -0.28794318 0.08819987 -0.1528093 0.036592737 -0.15508437 0.24279214 -0.124527894 0.24463008 -0.2907956 0.20622669 0.059003465 -0.1958453 0.010787528 -0.026691157 0.12099058 0.22967966 -0.009199401 -0.0501367 -0.086187735 0.024313271 -0.028202431 0.031618178 0.047356073 -0.18684472 -0.079801746 0.11488294 0.061503917 -0.03702263 0.11373494 0.028700868 -0.031759232 0.051614985 0.21387254 0.091142476 -0.15448424 -0.0613335 0.36401385 -0.27677673 -0.09359865 0.21568573 0.123476416 0.20985098 -0.050760694 0.029875921 0.24614298 0.060331117 -0.08372769 -0.14224581 -0.14941695 -0.021347126 -0.2087993 -0.24494876 0.15551606 0.1361385 -0.01834099 0.020528778 -0.03483593 0.28037563 0.18659036 0.12534791 0.03169981 0.04773484 -0.063614905 -0.016306277 -0.26756886 0.16296889 -0.035726562 0.1492787 0.21264258 0.39878374 -0.20850869 -0.21286911 -0.2541709 0.10473161 -0.15218846 -0.12520322 -0.25118905 0.0356928 -0.06777965 -0.19094071
9 0.097145274 0.07440527 -0.16540441 -0.17964976 0.044565 0.13524336 -0.034982227 -0.021849714 -0.050246563 0.07595577 0.08174188 -0.27691054 0.20782305 -0.10595771 -0.10300738 -0.029919121 0.049865704 -0.012544201 0.08630482 0.08756583 0.043251533 -0.006334163 -0.023485456 -0.09644788 0.07836204 -0.045133647 -0.036258765 -0.05185443 0.07373009 0.05938871 0.28219083 0.046640605 -0.026710054 0.053972557 -0.12451198 -0.037428457 0.088979 0.1847288 0.1660092 -0.06794275 -0.2909244 -0.13084392 -0.17728381 0.09163003 -0.13321456 -0.011961998 0.11097359 0.058606386 0.3510624 0.00204223 0.09050717 0.021407899 -0.19815736 -0.08311261 0.058041383 -0.1024832 -0.02312298 0.10607914 -0.08897724 -0.072202474 0.20485027 0.021160407 -0.075353734 0.12011304 0.33976364 0.037675835 0.17895015 0.09985108 -0.06341355 0.097813405 0.17350382 0.03899605 -0.12297382 -0.050231706 0.13675891 0.12507795 0.02721183 -0.3288498 0.016491693 0.14217125 -0.08004223 0.080772996 -0.071670786 0.12951861 -0.08804928 -0.075209804 -0.03037538 0.23117353 -0.12472657 -0.14824195 0.18399148 -0.13173589 -0.24548972 0.15377766 -0.18626115 -0.050072454 0.080456 0.06205551 -0.035975643 0.19024585 0.12337255 0.21652368 -0.06369321 0.17538927 0.1935484 -0.21110068 -0.106512934 -0.052051295 0.005680332 0.028549982 -0.21985038 -0.19912937 -0.19051282 -0.035857353 -0.10040165 -0.21408774 0.13263644 0.15864827 0.04250377 0.17384945 -0.2192648 0.092007294 -0.004106131 -0.015835686 -0.22963367 0.20908968 0.051929172 0.1834759 -0.15798357 0.16978778 0.0026072932 -0.06610297 0.010784953 0.005733092 0.094072565 0.02926443 -0.041654356 0.093714856 -0.05994472 -0.08407924 0.006473247 0.012856313 0.17803653 -0.11278918 -0.07207763 0.096913844 0.08952091 -0.0012804591 -0.0125809675 -0.13459073 0.09553164 -0.03607531 0.11898864 0.03680491 -0.05961262 0.021248488 0.15172938 -0.1476249 0.03623553 0.31603208 0.19687487 0.21781702 -0.120553926 0.0025331604 0.23487407 -0.01764845 -0.2055334 -0.1384273 -0.21938235 -0.060312472 -0.19295567 -0.2561309 0.10839664 -0.018263575 -0.04353454 0.0003030696 0.011548018 0.13098116 0.20780383 0.03995449 -0.006199604 0.0046647335 0.00451634 -0.031335864 -0.24307565 0.21465346 -0.092405185 -0.0035221372 0.047686167 0.1806707 -0.032399885 -0.09387001 -0.18514477 0.048770413 -0.15794668 -0.13646008 -0.22513144 0.004923185 -0.15036683 -0.1440572
5 0.082959846 0.047965687 -0.15726906 -0.12679273 0.05396673 0.100382045 -0.029315561 -0.044069212 -0.0035616565 0.19180943 0.05272694 -0.18461534 0.15653521 -0.06899925 -0.018391516 -0.03573129 0.05493773 -0.020018455 0.08037046 0.039143387 0.0052626347 -0.035317022 0.05239275 -0.12155827 0.06983409 -0.049639463 0.0014717514 0.006023789 0.031834498 0.0115561485 0.20503588 -0.00037961378 0.009782668 0.009932749 -0.113694355 -0.019552387 0.09367406 0.12302678 0.118113376 -0.07898479 -0.18485488 -0.07717986 -0.17115115 0.13272633 -0.08426843 -0.016967779 0.05531141 0.0042706644 0.23903874 0.047866274 0.093239665 0.02068143 -0.15823202 -0.109712794 0.15210105 -0.09692346 -0.019429164 0.045442387 -0.15549612 0.021292537 0.16439025 -0.0011689853 -0.011539107 0.11540057 0.27617532 0.06195614 0.16066262 0.050594594 -0.09499473 0.009812192 0.15159602 0.050486073 -0.103900164 -0.10598468 0.11256357 0.08514135 0.04313804 -0.2372957 0.03309201 0.15463738 -0.11241181 0.04538609 -0.08897806 0.122354485 -0.029358247 -0.10811683 -0.08040507 0.23438375 -0.15720685 -0.07264224 0.12654093 -0.122759685 -0.20583726 0.1285092 -0.13621828 -0.012212074 -0.041776713 0.05033502 -0.040394697 0.11237041 0.13759877 0.1814983 -0.08241669 0.12236819 0.11897792 -0.120477706 -0.059380677 -0.031627957 0.04838519 0.05063925 -0.16006838 -0.13725491 -0.13347231 -0.061077606 -0.111464255 -0.18862373 0.05767241 0.09947427 0.02551965 0.14827742 -0.18108292 0.09137258 -0.08520982 0.058296822 -0.13960229 0.16858359 0.0136291515 0.15109004 -0.17988794 0.12193493 -0.014714975 -0.08114421 -0.022264088 0.001017153 0.14202502 0.08006634 -0.025315754 0.050316803 -0.047809128 -0.0929269 -0.05338894 0.03138306 0.17651734 -0.13549283 -0.069371045 0.08804848 0.05963611 -0.06342748 0.08983245 -0.11410018 0.039618947 -0.0058165006 0.10673632 0.03573267 -0.046191134 0.044253718 0.14393671 -0.17146872 0.018529743 0.25398463 0.16943438 0.19827594 -0.082784735 -0.014103064 0.1730524 0.016720159 -0.14844456 -0.10052728 -0.14716688 -0.053679314 -0.18714572 -0.19059579 0.10383813 0.008201998 -0.03316613 0.0041124322 -0.0076542576 0.100516155 0.17051117 0.076460145 0.04599888 -0.04995235 -0.035872936 -0.011116627 -0.19818407 0.14277661 -0.06910323 0.026181819 0.047735333 0.20631786 -0.08928383 -0.09930193 -0.12682846 0.02647366 -0.14614414 -0.08386753 -0.20105155 -0.010251068 -0.113246076 -0.10868861
16 0.11179456 0.044732004 -0.17937247 -0.14713886 0.024972226 0.03728659 0.010930321 -0.049797863 -0.0057200254 0.18547012 0.015638415 -0.17875049 0.17053068 -0.18676977 0.053742796 -0.093816325 0.07549885 -0.022068819 0.13214475 0.006439896 -0.051477708 -0.0006827301 0.117922276 -0.23320621 0.15157124 -0.037097216 0.021637697 0.03701533 0.04171739 -0.05079064 0.24019349 -0.023878152 -0.028201817 -0.03812234 -0.08389402 0.0027812638 0.11423729 0.04162685 0.045123465 -0.13640457 -0.13681653 -0.08856341 -0.13559337 0.16643791 -0.08220342 -0.0451447 -0.005841302 0.054217745 0.3529703 -0.054479867 0.065779455 -0.045216855 -0.18041302 -0.10538813 0.18259645 -0.121070206 -0.11695151 0.08385181 -0.13497196 0.05660569 0.14498277 -0.10996822 0.065302484 0.14028841 0.34024435 0.005092754 0.20541233 -0.013333913 -0.10788498 0.048526976 0.16814633 6.383925e-05 -0.05054214 -0.1283612 0.083859034 0.10595624 0.087047555 -0.11078868 -0.05025946 0.15405095 -0.21086688 0.06824149 -0.05820547 0.15611152 -0.009629909 -0.10596709 -0.14882681 0.27232152 -0.21957019 0.024246804 0.1682003 -0.12187455 -0.15035184 0.1374643 -0.17013338 -0.014055099 -0.06011121 0.1147233 0.053156283 0.0438517 0.14692698 0.03087349 -0.22191708 0.13462433 0.14240007 -0.113664865 -0.07736294 -0.07722202 0.028998947 0.09844331 -0.0970117 -0.078209594 -0.15663382 -0.047556613 -0.10937224 -0.22308476 -0.010088518 0.06844243 -0.033034015 0.16442095 -0.22928505 0.14174297 -0.14345677 0.07003484 -0.10666134 0.206635 -0.08348654 0.19996764 -0.21293035 0.13102518 0.013503984 -0.14902548 -0.012127649 -0.015841234 0.1573957 0.21400668 -0.049133487 0.0247319 -0.08616637 0.000348305 -0.071427226 0.030329611 0.114576064 -0.13815977 -0.072631165 0.12325717 0.07247778 -0.051843513 0.15467514 -0.052589346 -0.0015921278 0.0142652355 0.16222659 0.06254698 -0.14562722 -0.022822827 0.24997813 -0.23869826 -0.05498862 0.24150288 0.08896402 0.20016229 -0.06954921 0.020083178 0.15969078 0.06337324 -0.1221947 -0.11335112 -0.1099252 -0.020972427 -0.14574477 -0.21533987 0.17403312 0.06516475 -0.029568931 -0.032589894 -0.016242897 0.21143982 0.21161002 0.1174933 0.042151816 -0.009351878 -0.03421045 -0.036449574 -0.20894454 0.16953321 -0.056305923 0.10128506 0.14662454 0.3233157 -0.15096608 -0.16713221 -0.17483012 0.037253812 -0.15054965 -0.12726516 -0.23873223 0.013752608 -0.06610866 -0.18512999
nokia 0.085405245 0.04168541 -0.12897012 -0.096926056 0.05622613 0.071802236 -0.016409155 -0.02693949 0.0038997482 0.19503675 0.029216502 -0.15117669 0.1331995 -0.058657844 -0.019059697 -0.022597104 0.05381324 -0.028199906 0.07882367 0.03894013 0.002215046 -0.044064693 0.0700263 -0.12568729 0.08254591 -0.061692268 0.015769152 -0.0076117585 0.052506853 -0.019285893 0.1988878 -0.021963667 -0.00011514914 -0.004097164 -0.11141165 -0.009684168 0.07936028 0.102530256 0.103950456 -0.06199288 -0.1496619 -0.061274823 -0.16616136 0.14011067 -0.061954327 -0.014720275 0.030359164 -0.020964287 0.2047708 0.06636729 0.069843024 0.02955559 -0.16707353 -0.09184597 0.15913615 -0.099301636 0.0065982826 0.01765772 -0.17099167 0.025383698 0.15814126 0.008264632 0.017303355 0.10776487 0.25744382 0.06539011 0.16091345 0.012458122 -0.095342316 0.0021273652 0.15143302 0.07027001 -0.08624253 -0.10782959 0.11685654 0.09347164 0.045855507 -0.21567021 0.036399756 0.16677728 -0.10556532 0.010020105 -0.11099613 0.10317214 -0.048603095 -0.104967296 -0.060595002 0.22641295 -0.1717121 -0.06697912 0.13314186 -0.113081634 -0.1610431 0.10618044 -0.10906671 -0.00879311 -0.07207807 0.032140087 -0.046190515 0.104083225 0.12540507 0.17781262 -0.069456965 0.1146206 0.07115519 -0.10907707 -0.035994157 -0.03638483 0.06954207 0.040573023 -0.13938457 -0.14548436 -0.0968449 -0.05152617 -0.10570283 -0.17955202 0.06426242 0.07983977 0.039541665 0.1538025 -0.15449762 0.105381 -0.10150944 0.07665409 -0.13156797 0.17138988 0.030304564 0.14329359 -0.158945 0.11852196 -0.008292144 -0.06060852 -0.009804005 0.00011427637 0.14854135 0.08813364 -0.025322447 0.05719716 -0.062989675 -0.07027511 -0.050526552 0.031522833 0.2031409 -0.10651835 -0.07530408 0.075127095 0.05320517 -0.075907215 0.11747256 -0.12762697 0.026521657 -0.00064868067 0.10996786 0.038558297 -0.018678982 0.03839137 0.13650988 -0.17006221 0.031929098 0.25253877 0.1268204 0.18722956 -0.08542086 -0.010889432 0.13582191 0.04044548 -0.16255279 -0.09334233 -0.122188345 -0.04060174 -0.20364062 -0.16512144 0.11120926 0.015964532 -0.024796138 -0.0064884094 -0.014927191 0.09386692 0.1440959 0.07710686 0.047715284 -0.07986706 -0.03275134 -0.020036282 -0.18129042 0.14033906 -0.06856547 0.022664947 0.034384254 0.2219387 -0.102163136 -0.1076119 -0.12101932 0.018314 -0.13441138 -0.08330539 -0.20027171 -0.004228156 -0.10913487 -0.108518325
plus 0.08241087 0.03712551 -0.17148186 -0.111121826 0.04495792 0.08505814 -0.016249137 -0.03952022 0.002537072 0.20539513 0.047775146 -0.18522502 0.15035313 -0.08341472 0.001773278 -0.040263638 0.057141382 -0.033019483 0.083103314 0.032008134 -0.0097835045 -0.030091457 0.06392852 -0.15074567 0.079997264 -0.05604659 0.013444545 0.008274335 0.047903664 0.008318185 0.21743637 -0.0047938665 -6.9500966e-05 0.008340661 -0.11935546 -0.022096772 0.103177786 0.11082495 0.10718064 -0.07332184 -0.16066556 -0.079250656 -0.15902236 0.12824404 -0.074382514 -0.026571088 0.035296045 0.0091103595 0.24431169 0.0352243 0.08877321 0.009953208 -0.16421089 -0.10742118 0.17013617 -0.10386019 -0.033783197 0.049088757 -0.17839298 0.026981622 0.1647122 -0.023890387 0.0048955097 0.12643965 0.29684392 0.043932445 0.17124669 0.02654531 -0.10218631 0.020930655 0.14556167 0.030020574 -0.08943636 -0.10065711 0.112902604 0.091166735 0.069290906 -0.21390851 0.027099783 0.15734836 -0.14619921 0.036856845 -0.087881446 0.1283854 -0.04157891 -0.11529711 -0.08996354 0.23750621 -0.19286996 -0.055089787 0.13529314 -0.13088496 -0.18780865 0.12441924 -0.14092402 -0.0070893937 -0.050837137 0.054692466 -0.011920851 0.10356777 0.13698417 0.16322552 -0.11231061 0.113908514 0.10256588 -0.13190246 -0.055532068 -0.04723067 0.036569588 0.06494111 -0.1534893 -0.13152783 -0.13770932 -0.044829372 -0.11421319 -0.19282582 0.04678097 0.096272446 0.012208959 0.15684 -0.19158283 0.09712775 -0.10280713 0.05991554 -0.14842044 0.18197882 0.0023654718 0.17411576 -0.19882594 0.13582562 -0.0024702882 -0.09458669 -0.017186118 -0.00385193 0.14368047 0.0990181 -0.019204393 0.037787776 -0.05592155 -0.0720137 -0.051054507 0.037757237 0.16821954 -0.14723067 -0.07708798 0.0828075 0.057973277 -0.07192543 0.09886897 -0.09608708 0.023379492 0.0112165855 0.12298196 0.043026086 -0.04672422 0.02240219 0.17508802 -0.18768689 0.0070303646 0.25262043 0.16089597 0.19957718 -0.07861059 -0.015541468 0.17714228 0.027073683 -0.141451 -0.09822124 -0.14571886 -0.047942944 -0.20901886 -0.19407335 0.10865417 0.025903057 -0.025688408 0.0051664202 -0.011137125 0.124927275 0.16279109 0.0864601 0.046911567 -0.059987184 -0.04841024 -0.018393936 -0.20857185 0.13821526 -0.07542769 0.03776098 0.06481954 0.2385115 -0.11484227 -0.11354686 -0.14048296 0.043260485 -0.14463252 -0.08968622 -0.21314482 0.0011613014 -0.11249131 -0.11991995
نوکیا 0.02055568 0.04874943 -0.15285556 -0.1391268 0.044416368 0.16643335 -0.102921575 -0.07892942 0.010010897 0.29880518 0.10874272 -0.1402546 0.20003581 0.019672396 -0.015517605 0.012457997 0.03946818 0.0065795756 0.06237153 0.012476687 0.04391089 -0.053405616 0.056980006 -0.031126985 -0.060229033 -0.011622338 -0.010961324 0.021674205 -0.054858577 0.08386206 0.10952294 -0.025450721 0.06016618 -0.012779393 -0.09775413 -0.03612108 0.072204776 0.15417682 0.15001076 -0.1257563 -0.2038805 -0.064624146 -0.25819233 0.14837192 -0.08843775 0.0050752363 0.13016649 -0.09055442 0.11252657 0.127647 0.19274175 0.080657765 -0.13164636 -0.13623522 0.12664244 -0.05396824 0.03864339 0.0005764998 -0.14246492 0.07606828 0.16657613 0.06083435 -0.055064034 0.083464466 0.17472169 0.12535705 0.11447373 0.1388987 -0.07377989 -0.10714449 0.10759961 0.10782443 -0.15318483 -0.14539328 0.0999164 0.016677452 -0.051577393 -0.30876336 0.101048656 0.12239559 -0.0432753 0.09241965 -0.15109241 0.13513453 0.024622533 -0.14526728 -0.09410434 0.20410994 -0.05134594 -0.14696114 0.060315806 -0.13574713 -0.30080086 0.12232103 -0.10904682 0.008978376 -0.073218666 0.0010600197 -0.13830261 0.16610873 0.1957045 0.25409073 0.07014979 0.06229729 0.15974027 -0.08775841 0.012707983 0.031673707 0.12156214 0.019426921 -0.18963324 -0.15240304 -0.09501926 -0.105233304 -0.12327918 -0.13847908 0.011786361 0.07476636 0.10025826 0.09035573 -0.12671188 0.046316035 -0.07715124 0.07663697 -0.057274524 0.06551186 0.010165188 0.057919335 -0.1820875 0.019922603 -0.09545672 -0.050064247 -0.052709855 0.01723117 0.14217609 -0.008065576 0.0012855483 0.065419786 -0.010537428 -0.19498046 -0.0965088 0.023317005 0.19092359 -0.17813332 -0.03973813 0.086670905 0.07684387 -0.08191084 0.052073307 -0.16780522 0.056183193 -0.05462068 0.045060523 -0.037041005 -0.04561405 0.14883985 0.002142517 -0.10203757 0.056931235 0.2678075 0.2433207 0.14658926 -0.08321684 -0.084332295 0.2197189 -0.045356214 -0.12765528 -0.058190078 -0.15478095 -0.053333577 -0.15716757 -0.1685233 0.035982758 -0.07519818 -0.068818666 0.009498336 0.029914415 -0.007022728 0.15056306 0.06883652 0.061180092 -0.080646925 -0.061825026 0.022058485 -0.13529067 0.07150406 -0.055327542 -0.0516519 -0.028882215 0.06415688 -0.039508197 0.005455764 -0.023402905 -0.03898296 -0.14710835 -0.014491167 -0.122215234 -0.052868303 -0.11425309 -0.019304432
c 0.102592304 0.061674446 -0.13103627 -0.1519388 0.045638133 0.09385088 -0.030274963 -0.038359255 -0.030196264 0.1230366 0.031205077 -0.2068568 0.17053886 -0.108828254 -0.07268748 -0.03763665 0.050270263 -0.0039933273 0.12079505 0.0610867 0.03277535 -0.012880097 0.05572157 -0.122694515 0.10760021 -0.039872468 -0.00447114 -0.024148958 0.059938684 -0.0077807875 0.24383192 0.0012487342 -0.03129728 0.00010149485 -0.10967612 -0.009028856 0.08568985 0.1274538 0.12013118 -0.0893171 -0.23582166 -0.09366487 -0.16399181 0.15579882 -0.11905627 -0.00019741082 0.057705842 0.014958282 0.31019416 0.01636085 0.082856394 0.0290986 -0.18611576 -0.08862646 0.101126954 -0.1136732 -0.029597066 0.071618564 -0.10758359 -0.010107052 0.16921137 0.006655716 -0.002103306 0.11286927 0.30717516 0.05156313 0.18358059 0.040563375 -0.07258045 0.07132602 0.16536006 0.06113595 -0.09722544 -0.09646076 0.13593483 0.11334269 0.021793552 -0.24276197 0.009348897 0.15393013 -0.10039545 0.0787739 -0.06970569 0.12210309 -0.04983315 -0.071219355 -0.063895985 0.23783888 -0.11626428 -0.09334917 0.17906566 -0.12248687 -0.1731037 0.13928784 -0.13942486 -0.027558953 -0.014296519 0.06307641 -0.04320977 0.108827226 0.102111645 0.16806416 -0.08252531 0.15746038 0.14909214 -0.138395 -0.08869279 -0.05488304 0.053554665 0.0143981865 -0.16934487 -0.16770524 -0.13531306 -0.04392998 -0.096878044 -0.20021565 0.080624126 0.105721325 0.05460589 0.15823208 -0.18126361 0.1319537 -0.05769278 0.03213923 -0.1557811 0.18456502 0.025068386 0.1664942 -0.14413698 0.13447754 -0.0055655297 -0.06971797 0.004302415 -0.0036970729 0.12722269 0.07830838 -0.062222466 0.09387568 -0.09503609 -0.059032943 -0.04476855 0.014612136 0.18644023 -0.09354985 -0.06034493 0.10048224 0.07558279 -0.03471233 0.061679117 -0.1299962 0.070981 -0.027959999 0.10717525 0.030493503 -0.076857 0.03152135 0.14438845 -0.15620483 0.016360207 0.28292245 0.13841833 0.20961154 -0.10292993 0.008028683 0.15728556 0.013174931 -0.1890288 -0.11481857 -0.15868558 -0.04553012 -0.15886633 -0.20314965 0.13628435 -0.015723417 -0.03532419 -0.022272758 0.0038812158 0.13896346 0.20721619 0.061792236 0.024171028 -0.03635443 0.013816357 -0.03166274 -0.19825329 0.19728129 -0.09316855 0.021724572 0.04887606 0.22213142 -0.06640878 -0.107221365 -0.14442481 0.021455912 -0.1524443 -0.13160875 -0.22047399 0.016111257 -0.11817849 -0.14528476
4 0.07930401 0.045722313 -0.14772807 -0.12578134 0.04734201 0.09607954 -0.026518596 -0.04247882 0.004692186 0.21853296 0.04993229 -0.17032844 0.159946 -0.06021495 -0.00124737 -0.029432088 0.0591345 -0.019161241 0.08055207 0.030001847 0.00550542 -0.04168726 0.07351208 -0.12773009 0.06273265 -0.046748314 0.007305877 -0.00016129746 0.027827125 0.0032895093 0.20003486 -0.014075775 0.006220405 -0.0045969756 -0.10996704 -0.021320045 0.090212554 0.108420506 0.11735187 -0.09187659 -0.17514713 -0.07130281 -0.18693848 0.15100533 -0.06707517 -0.015535828 0.048424534 -0.024175389 0.22683817 0.056810766 0.096887015 0.02909849 -0.16919369 -0.10184064 0.15577626 -0.09210808 -0.005832156 0.025480164 -0.16337608 0.03704037 0.16298984 0.00016402041 0.008218755 0.11413159 0.2672549 0.070160344 0.16632722 0.034894846 -0.09398041 -0.011034207 0.14898455 0.063517675 -0.10671823 -0.11841462 0.11544048 0.08265438 0.03494903 -0.23073244 0.03300177 0.16183884 -0.11860204 0.039708275 -0.11810336 0.1286916 -0.039757904 -0.11766567 -0.08434389 0.23325223 -0.16272546 -0.0752605 0.13235071 -0.1218067 -0.1996344 0.12415936 -0.12897778 -0.006346341 -0.0667859 0.045799796 -0.05498074 0.113788754 0.14900407 0.1816487 -0.068872094 0.11227701 0.10741073 -0.11245851 -0.04138575 -0.03359792 0.07308105 0.0488181 -0.15300001 -0.1440558 -0.11537215 -0.06280412 -0.10541383 -0.18371178 0.046004705 0.07862633 0.042985894 0.15685269 -0.1732302 0.10305845 -0.10536573 0.07066032 -0.12321893 0.16200632 0.009372886 0.14465487 -0.18069842 0.10730296 -0.019844972 -0.07380997 -0.022067152 0.0030087926 0.149103 0.094707415 -0.026517222 0.054191917 -0.052957285 -0.08670851 -0.06945837 0.03824329 0.19089669 -0.13523024 -0.07406015 0.082413554 0.063098535 -0.075787954 0.11016392 -0.13176623 0.02726305 -0.0090866 0.115904205 0.030900693 -0.051256422 0.053002354 0.1327315 -0.17325093 0.023649585 0.26736152 0.1550051 0.19087398 -0.08219871 -0.023614647 0.17174564 0.028007265 -0.15716855 -0.09548917 -0.13974176 -0.042761255 -0.19375895 -0.18772286 0.10820168 0.008014649 -0.039173935 -0.010167602 -0.0071162623 0.098272 0.1620103 0.08897578 0.05078783 -0.07301286 -0.03726925 -0.018909538 -0.18419212 0.14343673 -0.061924502 0.025564028 0.03934974 0.2086557 -0.10326939 -0.10195292 -0.123607285 0.012788351 -0.14479534 -0.085195325 -0.19585262 -0.014514998 -0.11120767 -0.1109305
7 0.08600708 0.050918326 -0.17241009 -0.13889873 0.049336154 0.10527605 -0.024287052 -0.036791828 -0.0140758585 0.1608429 0.055389237 -0.21180336 0.17130749 -0.08706679 -0.032438293 -0.036929443 0.057792734 -0.016800158 0.0869686 0.046632826 0.0056867297 -0.022281686 0.03636432 -0.120825395 0.07728093 -0.052071165 -0.01063619 -0.0015829959 0.041757077 0.030142361 0.22242557 0.013571332 0.007769276 0.02157989 -0.11610936 -0.023019243 0.09331007 0.13731758 0.12347648 -0.08583001 -0.2021609 -0.10328114 -0.16895448 0.11580843 -0.1010213 -0.018182002 0.07083827 0.033925433 0.2742829 0.021127077 0.09510185 0.011769318 -0.16561985 -0.10742373 0.13717566 -0.09692697 -0.03892864 0.07373552 -0.14095478 -0.0022238297 0.17243348 -0.0040589767 -0.019324554 0.11792637 0.3077025 0.044361435 0.16546053 0.06833904 -0.09329143 0.027612746 0.1485146 0.02402772 -0.104335345 -0.08843624 0.10933443 0.09347688 0.04288462 -0.25190768 0.021811934 0.1438822 -0.114078455 0.05518025 -0.07636331 0.1320167 -0.036052905 -0.106395215 -0.079121 0.23160614 -0.15098582 -0.083799705 0.14306322 -0.12774286 -0.22827913 0.136118 -0.1584615 -0.023086494 -0.0024936132 0.06363985 -0.02448303 0.1294293 0.14502062 0.16841643 -0.09073879 0.13237722 0.15086277 -0.14929198 -0.07862925 -0.039578438 0.025323827 0.060347147 -0.17831971 -0.14692314 -0.16070591 -0.058805402 -0.118324704 -0.19303408 0.07432112 0.11074104 0.014139504 0.14990164 -0.20002593 0.09429673 -0.068879634 0.030244656 -0.16194856 0.17988631 0.013136707 0.16776745 -0.18172331 0.12922922 -0.009389652 -0.09458373 -0.013111447 0.0030629055 0.12969571 0.07959301 -0.024240047 0.05189705 -0.044432804 -0.08423775 -0.035856135 0.026531257 0.16587108 -0.13748357 -0.06429037 0.09232814 0.07477061 -0.041167926 0.061615303 -0.1054813 0.047452692 -0.0077027027 0.11589587 0.03545399 -0.0632076 0.032779813 0.15813273 -0.17326924 0.011021228 0.26610023 0.1740901 0.20561771 -0.08762297 -0.01132301 0.19876981 0.009280884 -0.15789916 -0.104368925 -0.16223638 -0.055237286 -0.18366411 -0.2109501 0.10096347 0.012459025 -0.03948733 -0.0003725615 -0.0036818525 0.12227483 0.18134117 0.06614232 0.028439349 -0.023131076 -0.02676436 -0.0147035895 -0.21829115 0.16232833 -0.07389014 0.023169389 0.06765181 0.20945148 -0.07261725 -0.101266414 -0.14028198 0.038123194 -0.15125495 -0.09533199 -0.2139562 -0.0069526136 -0.12077637 -0.11932985
تی -0.019492788 0.02619348 -0.16301315 -0.21209118 0.090386234 0.25555924 -0.20131373 -0.08220805 0.03827321 0.54106146 0.20886706 -0.14560041 0.31566358 0.15495369 -0.004587314 0.0845708 0.03386608 0.013271514 0.030355928 0.006097276 0.08543687 -0.116095714 0.102563746 0.007278531 -0.20346169 -0.021148328 -0.03077564 -0.025485598 -0.10944033 0.15450573 0.10078429 -0.10052965 0.083186306 -0.06319683 -0.12556957 -0.047977 0.033055488 0.21734917 0.2672746 -0.16486476 -0.24641259 -0.046598718 -0.479243 0.22458206 -0.055771492 0.015653333 0.2297479 -0.27095053 0.0016879785 0.27245513 0.31944242 0.16663417 -0.22476944 -0.17248328 0.12081823 -0.0074692345 0.18301354 -0.11705803 -0.23685102 0.12345918 0.25174776 0.1816047 -0.094261676 0.08766116 0.14956869 0.26692152 0.14109635 0.17503813 -0.096951194 -0.2679612 0.13737486 0.2355916 -0.2851264 -0.2040561 0.15158418 -0.050890848 -0.13632834 -0.50607103 0.20190853 0.18297648 -0.0138391685 0.08427314 -0.3695098 0.1540382 0.005977718 -0.24476165 -0.10903281 0.2416352 -0.057376485 -0.27070364 0.05102018 -0.18765745 -0.4130148 0.1729472 -0.108793035 0.015972465 -0.16971861 -0.039226882 -0.31389287 0.3157137 0.2967079 0.46518406 0.28082788 0.051911652 0.16524519 -0.07336851 0.11859813 0.059858818 0.23664889 -0.037751168 -0.29478475 -0.27294025 -0.046541505 -0.12921433 -0.102068916 -0.17175722 -0.0056448937 0.048723713 0.2432418 0.16490261 -0.12539685 0.03584518 -0.13138074 0.1456672 -0.03349444 0.034591302 0.052219864 0.029549517 -0.21708585 -0.06269052 -0.16076148 0.013693241 -0.10427129 -0.010712127 0.21561448 -0.056624386 0.022489844 0.11414966 0.03846604 -0.3135677 -0.14809817 0.0853846 0.3735348 -0.25891817 -0.060288765 0.100931875 0.11894465 -0.18970391 0.11382438 -0.31966457 0.090645045 -0.13833989 0.07501343 -0.07008977 0.0013784786 0.2338325 -0.10476102 -0.12913609 0.16484609 0.39634708 0.34812337 0.15638743 -0.12196325 -0.20416386 0.3026089 -0.052777655 -0.1993758 -0.08556514 -0.18204005 -0.03537064 -0.27358755 -0.23009498 0.031730697 -0.13295496 -0.08470901 -0.0483235 0.020979667 -0.12278431 0.17080568 0.06804222 0.062124286 -0.22683747 -0.11872946 0.040769488 -0.12614878 0.03827338 -0.078513615 -0.14696535 -0.11941485 -0.054595634 -0.032438226 0.05536862 0.0042057172 -0.10349513 -0.20951343 -0.02164317 -0.1096676 -0.11266533 -0.2161258 0.005924925
